tree
version=v2
num_class=1
num_tree_per_iteration=1
label_index=0
max_feature_idx=269
objective=binary sigmoid:1
feature_names=0 1 2 3 4 5 6 7 8 9 10 11 12 13 14 15 16 17 18 19 20 21 22 23 24 25 26 27 28 29 30 31 32 33 34 35 36 37 38 39 40 41 42 43 44 45 46 47 48 49 50 51 52 53 54 55 56 57 58 59 60 61 62 63 64 65 66 67 68 69 70 71 72 73 74 75 76 77 78 79 80 81 82 83 84 85 86 87 88 89 90 91 92 93 94 95 96 97 98 99 100 101 102 103 104 105 106 107 108 109 110 111 112 113 114 115 116 117 118 119 120 121 122 123 124 125 126 127 128 129 130 131 132 133 134 135 136 137 138 139 140 141 142 143 144 145 146 147 148 149 150 151 152 153 154 155 156 157 158 159 160 161 162 163 164 165 166 167 168 169 170 171 172 173 174 175 176 177 178 179 180 181 182 183 184 185 186 187 188 189 190 191 192 193 194 195 196 197 198 199 200 201 202 203 204 205 206 207 208 209 210 211 212 213 214 215 216 217 218 219 220 221 222 223 224 225 226 227 228 229 230 231 232 233 234 235 236 237 238 239 240 241 242 243 244 245 246 247 248 249 250 251 252 253 254 255 256 257 258 259 260 261 262 263 264 265 266 267 268 269
feature_infos=[0:6] [0:3] none [0:7] none none [0:4] none [0:6] [0:16] none [0:6] none [0:4] [0:16] [0:5] none [0:4] [0:9] [0:7] none none [0:6] none [0:6] none [0:8] none [0:3] none [0:5] none none none [0:5] [0:4] [0:7] [0:7] [0:7] none [0:7] none [0:5] none none none [0:6] [0:4] [0:4] none none none [0:10] [0:9] [0:5] none none [0:9] none none [0:3] [0:3] none none [0:9] none none none [0:6] [0:4] [0:5] [0:9] none [0:25] none none [0:7] [0:5] none [0:4] none [0:15] none [0:9] none none [0:4] [0:10] [0:7] none none none [0:10] [0:7] [0:4] [0:5] none none none [0:8] [0:6] [0:5] none none [0:3] [0:10] none [0:4] none [0:7] [0:10] [0:2] none [0:4] [0:7] [0:21] none [0:7] [0:5] [0:5] none none none none [0:5] none none [0:5] none none [0:5] [0:7] [0:9] [0:5] none [0:3] [0:9] none none [0:2] none [0:6] [0:11] [0:4] none none none none [0:4] none none none none none none [0:3] none [0:14] [0:8] [0:9] [0:6] none none none none [0:5] [0:4] [0:6] none [0:2] none [0:4] [0:4] none none none none none [0:3] [0:6] [0:7] none none [0:4] [0:7] none none [0:7] none [0:8] [0:5] [0:13] none none none [0:3] [0:7] [0:7] none none none none none none [0:2] [0:3] [0:3] none none none none [0:3] [0:17] [0:5] none none [0:3] none none none none [0:14] none [0:4] [0:2] [0:3] [0:4] none none [0:5] none [0:10] none none none none none none none none none none [0:6] none none [0:10] [0:15] [0:3] [0:4] [0:11] none none none none [0:9] [0:4] [0:3] none [0:10] none [0:6] none none none none none [0:4] none none none
tree_sizes=857 1112 1053 969 1047 1124 1042 965 1118 1130 1049 1050 1064 1043 1044 1050 1215 1060 971 1062 1124 1131 1057 1134 1127 1142

Tree=0
num_leaves=10
num_cat=0
split_feature=88 159 3 124 131 9 107 9 9
split_gain=155.48 93.7544 87.6267 33.6999 26.0417 30.547 26.6727 24.8642 1.11604
threshold=1.0000000180025095e-35 1.0000000180025095e-35 1.0000000180025095e-35 1.0000000180025095e-35 1.5000000000000002 1.0000000180025095e-35 1.0000000180025095e-35 1.0000000180025095e-35 1.5000000000000002
decision_type=2 2 2 2 2 2 2 2 2
left_child=1 2 4 -2 5 6 -1 -3 -7
right_child=3 7 -4 -5 -6 8 -8 -9 -10
leaf_value=-1.2608695821185194 0.46632121699893664 1.0909090712050757 0.37064217474893807 1.6387959774054581 -2 -1.9999999999999996 0.029850718225660156 -0.12154698927161429 -1.613636373426796
leaf_count=104 95 56 93 50 135 61 78 74 54
internal_value=0 -0.430589 -0.822511 1.06202 -1.24641 -0.976085 -0.587013 0.558252 -1.81058
internal_count=800 655 525 145 432 297 182 130 115
shrinkage=1


Tree=1
num_leaves=13
num_cat=0
split_feature=212 38 256 13 131 18 118 107 52 117 221 115
split_gain=60.191 36.8006 26.368 23.966 21.5886 16.6175 11.596 13.6813 6.01038 4.99347 3.2001 2.88142
threshold=1.0000000180025095e-35 1.5000000000000002 1.0000000180025095e-35 1.0000000180025095e-35 1.5000000000000002 1.5000000000000002 1.0000000180025095e-35 1.0000000180025095e-35 1.0000000180025095e-35 1.0000000180025095e-35 1.0000000180025095e-35 1.0000000180025095e-35
decision_type=2 2 2 2 2 2 2 2 2 2 2 2
left_child=1 2 3 4 6 8 7 11 -2 -9 -6 -1
right_child=5 -3 -4 -5 10 -7 -8 9 -10 -11 -12 -13
leaf_value=0.06658201550796379 -1.0275889692701756 -1.4555032597474433 -0.8643078230166259 -0.85072859477079754 -0.062204655711334059 -0.29207789373396359 0.05521296206869248 1.2793530755981304 -1.8755598354658016 0.75985322182944592 -0.88613352988331795 0.59872934483908802
leaf_count=60 73 53 65 56 50 67 63 54 83 52 71 53
internal_value=0 0.200489 0.309553 0.427056 0.534989 -0.975525 0.669042 0.802662 -1.41487 1.05488 -0.470043 0.335467
internal_count=800 577 524 459 403 223 282 219 156 106 121 113
shrinkage=1


Tree=2
num_leaves=12
num_cat=0
split_feature=246 81 216 155 105 160 88 18 71 221 37
split_gain=40.2584 25.5128 19.1188 19.4576 34.6245 9.65235 9.04505 8.35175 21.5498 7.93812 7.52257
threshold=1.0000000180025095e-35 1.0000000180025095e-35 1.0000000180025095e-35 1.0000000180025095e-35 1.0000000180025095e-35 1.0000000180025095e-35 1.0000000180025095e-35 1.0000000180025095e-35 1.0000000180025095e-35 1.0000000180025095e-35 1.0000000180025095e-35
decision_type=2 2 2 2 2 2 2 2 2 2 2
left_child=1 2 3 4 6 10 7 8 -1 -5 -2
right_child=5 -3 -4 9 -6 -7 -8 -9 -10 -11 -12
leaf_value=-0.082162180450511824 -0.11102566186069088 -1.6953929863204344 1.0968137142276537 -0.29458424854230664 0.98362028013671521 -1.9038720964634834 0.34370084190196926 0.067425735411807963 -1.8739227657370661 -1.7163714129829855 -1.2845950794137264
leaf_count=80 50 55 59 50 94 60 65 91 63 71 62
internal_value=0 0.203718 0.278341 0.143487 0.269513 -1.03206 -0.0960992 -0.330578 -0.697372 -0.894695 -0.673575
internal_count=800 628 573 514 393 172 299 234 143 121 112
shrinkage=1


Tree=3
num_leaves=11
num_cat=0
split_feature=183 136 124 221 93 115 115 105 221 131
split_gain=26.7397 19.7765 10.2985 15.7229 15.5409 10.1321 8.59333 7.99192 9.58267 6.39562
threshold=1.0000000180025095e-35 1.0000000180025095e-35 1.0000000180025095e-35 1.0000000180025095e-35 1.0000000180025095e-35 1.0000000180025095e-35 2.5000000000000004 1.0000000180025095e-35 1.0000000180025095e-35 1.0000000180025095e-35
decision_type=2 2 2 2 2 2 2 2 2 2
left_child=1 2 4 -4 5 -1 -3 8 -7 -5
right_child=-2 6 3 9 -6 7 -8 -9 -10 -11
leaf_value=0.49096842867654089 -1.4706363021670055 -1.6095382806779621 -0.14833369144374997 1.1718789065798418 -1.3397620077422139 -0.16190839975464416 -0.052291100770621074 0.3079138693804257 -1.4386486156890901 0.14685364858197389
leaf_count=101 85 70 97 53 55 81 55 95 57 51
internal_value=0 0.0737559 0.184282 0.521728 -0.0208956 0.106492 -1.01866 -0.20592 -0.54013 0.938929
internal_count=800 715 590 201 389 334 125 233 138 104
shrinkage=1


Tree=4
num_leaves=12
num_cat=0
split_feature=1 92 206 189 113 117 115 77 115 8 115
split_gain=12.3983 8.92498 9.77561 13.8154 11.0335 11.1195 6.21483 3.46266 8.26918 3.29936 1.14968
threshold=1.0000000180025095e-35 1.0000000180025095e-35 1.0000000180025095e-35 1.0000000180025095e-35 1.0000000180025095e-35 1.0000000180025095e-35 1.5000000000000002 1.0000000180025095e-35 1.5000000000000002 1.0000000180025095e-35 1.0000000180025095e-35
decision_type=2 2 2 2 2 2 2 2 2 2 2
left_child=1 2 3 4 5 7 -7 8 10 -4 -1
right_child=-2 -3 9 -5 -6 6 -8 -9 -10 -11 -12
leaf_value=0.063715666582815828 -1.2091497089500776 -0.86895087063715082 0.91635757920121397 -2.0412835459661638 -0.94989981353707864 -1.0212657621797725 -0.013093002016751289 0.74211424408629589 0.73200911241215283 0.24431039092950968 -0.33448230564297177
leaf_count=61 70 68 59 51 54 74 88 67 83 52 73
internal_value=0 0.0639147 0.129092 -0.0120575 0.0514392 0.157422 -0.401543 0.369011 0.232931 0.633871 -0.0986202
internal_count=800 730 662 551 500 446 162 284 217 111 134
shrinkage=1


Tree=5
num_leaves=13
num_cat=0
split_feature=54 36 157 76 19 107 136 115 142 155 38 115
split_gain=10.9481 7.50663 7.45855 17.6585 12.3492 10.1481 6.14903 3.15564 3.24651 2.78144 2.41111 0.596551
threshold=1.0000000180025095e-35 1.0000000180025095e-35 1.0000000180025095e-35 1.0000000180025095e-35 1.0000000180025095e-35 1.0000000180025095e-35 1.0000000180025095e-35 1.5000000000000002 1.0000000180025095e-35 1.0000000180025095e-35 1.0000000180025095e-35 1.0000000180025095e-35
decision_type=2 2 2 2 2 2 2 2 2 2 2 2
left_child=2 10 4 -4 6 -6 7 8 11 -9 -2 -1
right_child=1 -3 3 -5 5 -7 -8 9 -10 -11 -12 -13
leaf_value=0.34825706170997578 -1.651844375346716 -0.01270310018777117 -1.4737077387071851 0.47537343918109154 -1.2257037154844037 0.16636495247118388 -1.2886372605083702 0.35366876047424123 1.0479336463871138 -0.43015228337724742 -0.74494483691622904 0.61365043729513491
leaf_count=63 52 69 64 53 66 54 59 96 52 49 60 63
internal_value=0 -0.653545 0.120516 -0.460047 0.229797 -0.445566 0.414614 0.461089 0.617692 0.194605 -1.19498 0.459259
internal_count=800 181 619 117 502 120 382 323 178 145 112 126
shrinkage=1


Tree=6
num_leaves=12
num_cat=0
split_feature=3 37 8 40 110 242 87 87 101 115 38
split_gain=10.8626 10.5959 12.8694 7.08294 6.67823 5.13311 3.74397 3.2731 3.03771 1.89622 1.40263
threshold=1.0000000180025095e-35 1.0000000180025095e-35 1.0000000180025095e-35 1.5000000000000002 1.0000000180025095e-35 1.0000000180025095e-35 1.0000000180025095e-35 1.0000000180025095e-35 1.0000000180025095e-35 1.0000000180025095e-35 1.0000000180025095e-35
decision_type=2 2 2 2 2 2 2 2 2 2 2
left_child=1 2 5 -2 8 9 -4 -6 -3 -1 -7
right_child=3 4 6 -5 7 10 -8 -9 -10 -11 -12
leaf_value=0.28655549302396272 -0.16063695047548332 -0.74387000475381115 -1.5797665933065184 0.72057356112738902 -0.76914478101692907 -0.50341440892868261 -0.3912772388493499 -1.8294866799915612 0.033676711634705307 0.78393173934412075 0.11263836666522881
leaf_count=56 74 66 61 88 76 62 49 66 76 77 49
internal_value=0 -0.19287 0.0690167 0.428895 -0.65055 0.301683 -0.914702 -1.25163 -0.305226 0.53521 -0.181701
internal_count=800 638 354 162 284 244 110 142 142 133 111
shrinkage=1


Tree=7
num_leaves=11
num_cat=0
split_feature=83 18 159 47 131 158 36 115 115 9
split_gain=11.4682 8.10336 9.15112 5.00383 8.08063 4.61216 4.51556 2.78859 5.30806 1.87388
threshold=1.0000000180025095e-35 1.5000000000000002 1.0000000180025095e-35 1.0000000180025095e-35 1.0000000180025095e-35 1.0000000180025095e-35 1.0000000180025095e-35 1.0000000180025095e-35 1.5000000000000002 1.0000000180025095e-35
decision_type=2 2 2 2 2 2 2 2 2 2
left_child=1 2 3 4 7 -4 9 -1 -9 -2
right_child=6 -3 5 -5 -6 -7 -8 8 -10 -11
leaf_value=-1.5360796482732384 0.83533216233152563 0.50374967230454115 -0.27732830509606116 -0.010894847231463244 0.0099377000372984688 0.54215838677939376 -0.26170787774786869 -0.37766771439126073 -1.5954540343822023 0.31915060644228249
leaf_count=67 54 83 63 95 80 52 55 79 92 80
internal_value=0 -0.18923 -0.325912 -0.608761 -0.799055 0.126846 0.477957 -1.09844 -0.836775 0.643561
internal_count=800 611 528 413 318 115 189 238 171 134
shrinkage=1


Tree=8
num_leaves=13
num_cat=0
split_feature=86 211 255 105 117 9 118 107 40 40 124 38
split_gain=7.0016 7.49063 7.74633 4.71206 4.56658 3.59436 4.47555 1.61633 1.50332 1.17149 0.653583 0.142635
threshold=1.0000000180025095e-35 1.0000000180025095e-35 1.5000000000000002 1.0000000180025095e-35 1.0000000180025095e-35 1.5000000000000002 1.0000000180025095e-35 1.0000000180025095e-35 2.5000000000000004 1.0000000180025095e-35 1.0000000180025095e-35 1.0000000180025095e-35
decision_type=2 2 2 2 2 2 2 2 2 2 2 2
left_child=1 2 3 5 10 6 7 9 -3 -1 -5 -9
right_child=-2 8 -4 4 -6 -7 -8 11 -10 -11 -12 -13
leaf_value=0.31423140275846489 -0.95076031238687564 -1.5305171006752722 -0.73874463045391137 -0.16713619371514665 -1.0503303405162965 0.8319565075484503 -0.43435769183359213 0.63485514128133291 -0.54142348428468801 -0.18315682931691821 0.24347108496628214 0.47815597112895702
leaf_count=87 67 53 78 49 72 69 64 49 54 58 51 49
internal_value=0 0.070385 0.137575 0.227539 -0.192192 0.353523 0.243908 0.362242 -0.997033 0.179968 0.0664862 0.549012
internal_count=800 733 626 548 172 376 307 243 107 145 100 98
shrinkage=1


Tree=9
num_leaves=13
num_cat=0
split_feature=94 0 226 24 18 54 38 242 179 18 8 115
split_gain=6.31798 5.29543 6.91972 4.838 4.41952 3.52323 3.61685 3.57084 8.44424 3.40452 1.60953 0.340087
threshold=1.0000000180025095e-35 1.0000000180025095e-35 1.0000000180025095e-35 1.0000000180025095e-35 1.0000000180025095e-35 1.0000000180025095e-35 1.0000000180025095e-35 1.0000000180025095e-35 1.0000000180025095e-35 1.0000000180025095e-35 1.0000000180025095e-35 1.0000000180025095e-35
decision_type=2 2 2 2 2 2 2 2 2 2 2 2
left_child=1 2 5 4 -3 7 -7 10 9 -9 11 -1
right_child=-2 3 -4 -5 -6 6 -8 8 -10 -11 -12 -13
leaf_value=0.35201326705667513 -1.8017121088271366 -0.68887076267583724 -0.92333064944543031 0.94600501879356413 0.41681567097663969 -1.3099893079495022 -0.031130367100056212 -0.39162336122104807 -1.3016237558667032 0.45710244638917408 -0.092687128323512738 0.58997692128853907
leaf_count=52 59 59 73 51 77 49 59 91 52 58 59 61
internal_value=0 0.0530679 -0.0883266 0.420162 0.0958468 0.0241889 -0.550168 0.118698 -0.160018 0.13361 0.348565 0.467987
internal_count=800 741 554 187 136 481 108 373 201 149 172 113
shrinkage=1


Tree=10
num_leaves=12
num_cat=0
split_feature=61 11 88 131 107 46 221 77 110 110 8
split_gain=5.62938 5.68085 5.4283 6.47144 3.9757 3.7374 2.3642 3.26825 2.93202 0.704649 0.286587
threshold=1.0000000180025095e-35 1.0000000180025095e-35 1.0000000180025095e-35 1.5000000000000002 1.0000000180025095e-35 1.0000000180025095e-35 1.0000000180025095e-35 1.0000000180025095e-35 1.0000000180025095e-35 1.0000000180025095e-35 1.0000000180025095e-35
decision_type=2 2 2 2 2 2 2 2 2 2 2
left_child=1 2 3 5 -4 6 7 8 -1 -8 -5
right_child=-2 -3 4 10 -6 -7 9 -9 -10 -11 -12
leaf_value=-0.18674894613111206 -0.8785039292896073 -0.92827029719898102 0.097824772816136746 -1.3110909334474803 0.84221658169832803 -0.81287989512511882 -0.047783152112278765 0.77468402588867558 0.60948008932931397 -0.56833372143247585 -0.81188560182043512
leaf_count=95 78 66 51 66 54 69 71 49 60 61 80
internal_value=0 0.0873309 0.152287 -0.040637 0.499929 0.0736975 0.163201 0.309525 0.0816584 -0.214483 -1.12805
internal_count=800 722 656 551 105 405 336 204 155 132 146
shrinkage=1


Tree=11
num_leaves=12
num_cat=0
split_feature=69 76 247 245 197 22 159 38 160 87 115
split_gain=3.23929 4.31702 2.44532 2.98711 1.86718 1.7984 2.30025 2.19842 2.09467 2.05525 0.30649
threshold=1.0000000180025095e-35 1.0000000180025095e-35 1.0000000180025095e-35 1.0000000180025095e-35 1.0000000180025095e-35 1.0000000180025095e-35 1.0000000180025095e-35 1.0000000180025095e-35 1.0000000180025095e-35 1.0000000180025095e-35 1.0000000180025095e-35
decision_type=2 2 2 2 2 2 2 2 2 2 2
left_child=1 2 3 5 -3 6 7 10 9 -7 -1
right_child=-2 4 -4 -5 -6 8 -8 -9 -10 -11 -12
leaf_value=0.34443231534817498 -0.60075866652899479 -1.4941178022965274 -0.56070169551358573 -0.90877001671029334 -0.2832726380884964 0.21713557727707899 -0.26518410183275365 -0.17497443443330316 -0.089261162276608477 0.90762242381527103 0.59822991233998979
leaf_count=51 80 59 61 59 52 59 62 78 91 76 72
internal_value=0 0.0970904 0.165292 0.215226 -0.773081 0.257334 0.122461 0.280023 0.47652 0.63628 0.460466
internal_count=800 720 609 548 111 489 263 201 226 135 123
shrinkage=1


Tree=12
num_leaves=12
num_cat=0
split_feature=143 248 167 107 30 158 83 110 87 87 115
split_gain=3.79894 3.54554 2.01824 1.56106 2.21324 1.77082 2.8456 0.977422 0.832164 0.599966 0.354131
threshold=1.0000000180025095e-35 1.0000000180025095e-35 1.0000000180025095e-35 1.0000000180025095e-35 1.0000000180025095e-35 1.0000000180025095e-35 1.0000000180025095e-35 1.0000000180025095e-35 1.0000000180025095e-35 1.0000000180025095e-35 1.0000000180025095e-35
decision_type=2 2 2 2 2 2 2 2 2 2 2
left_child=1 2 3 4 8 7 9 -5 10 -7 -1
right_child=-2 -3 -4 5 -6 6 -8 -9 -10 -11 -12
leaf_value=0.17680144244960261 0.59847262018483971 -1.2975219663019901 -0.95151189853541351 0.59075815585497427 -0.90909314113033413 -0.15377930822325442 0.4476949250953724 0.12348464095675055 -0.45046980421402677 -0.61300693572421505 -0.11147964607618907
leaf_count=59 58 67 94 64 49 67 55 64 59 94 70
internal_value=0 -0.0566969 -0.0130804 0.0209019 -0.171847 0.153507 -0.0668339 0.375621 -0.0512481 -0.37131 0.0461877
internal_count=800 742 675 581 237 344 216 128 188 161 129
shrinkage=1


Tree=13
num_leaves=12
num_cat=0
split_feature=48 249 247 3 99 19 197 158 3 110 71
split_gain=2.23145 1.73296 3.96707 2.25874 3.0417 1.69224 1.94245 2.91853 1.51853 1.00429 1.02025
threshold=1.0000000180025095e-35 1.5000000000000002 1.0000000180025095e-35 1.0000000180025095e-35 1.0000000180025095e-35 1.0000000180025095e-35 2.5000000000000004 1.0000000180025095e-35 1.0000000180025095e-35 1.0000000180025095e-35 1.0000000180025095e-35
decision_type=2 2 2 2 2 2 2 2 2 2 2
left_child=1 2 3 4 5 6 7 9 -2 10 -1
right_child=8 -3 -4 -5 -6 -7 -8 -9 -10 -11 -12
leaf_value=-0.0710626066872342 0.6418840743780293 0.29170909000666218 -1.8949398015522119 0.26012207292842182 0.63779718933446738 -0.94607623986486333 -1.3039139107355957 0.5310837333877505 -0.02706854927809875 -0.79966916613722894 -0.69386880220814384
leaf_count=64 69 69 57 85 62 77 55 84 53 64 61
internal_value=0 -0.0780216 -0.16324 -0.111988 -0.251807 -0.360158 -0.257486 -0.179935 0.368595 -0.364131 -0.233852
internal_count=800 678 609 552 467 405 328 273 122 189 125
shrinkage=1


Tree=14
num_leaves=12
num_cat=0
split_feature=159 249 73 197 256 197 22 9 87 8 71
split_gain=1.78053 4.24509 2.98632 2.44033 2.25535 1.80839 1.67089 2.03148 1.38031 1.27482 0.0688053
threshold=1.0000000180025095e-35 1.0000000180025095e-35 1.0000000180025095e-35 1.5000000000000002 1.0000000180025095e-35 2.5000000000000004 1.0000000180025095e-35 1.0000000180025095e-35 1.0000000180025095e-35 1.0000000180025095e-35 1.0000000180025095e-35
decision_type=2 2 2 2 2 2 2 2 2 2 2
left_child=1 4 3 -2 5 6 8 -8 10 -3 -1
right_child=2 9 -4 -5 -6 -7 7 -9 -10 -11 -12
leaf_value=0.37674852757780936 0.5891738797182936 -1.0707456170034599 -0.69987920927655534 -0.13351866550101946 -0.98864956495018286 0.81334227668099701 -0.92586674219104603 0.26691524108189585 -0.29093432261502222 -0.30620784053486833 0.21865866465745828
leaf_count=71 81 69 51 61 73 68 95 53 72 54 52
internal_value=0 -0.13678 0.209751 0.346133 0.0447349 0.118203 0.0244052 -0.438605 0.172077 -0.742524 0.332975
internal_count=800 607 193 142 484 411 343 148 195 123 123
shrinkage=1


Tree=15
num_leaves=12
num_cat=0
split_feature=107 246 24 26 179 88 255 242 115 22 115
split_gain=2.40195 2.22165 1.85406 3.22012 2.1459 1.60555 1.27655 0.989682 3.54897 0.683649 0.0255794
threshold=1.0000000180025095e-35 1.0000000180025095e-35 1.0000000180025095e-35 1.0000000180025095e-35 1.0000000180025095e-35 1.0000000180025095e-35 1.5000000000000002 1.0000000180025095e-35 1.5000000000000002 1.0000000180025095e-35 1.0000000180025095e-35
decision_type=2 2 2 2 2 2 2 2 2 2 2
left_child=2 5 3 4 10 6 7 -2 -9 -10 -1
right_child=1 -3 -4 -5 -6 -7 -8 8 9 -11 -12
leaf_value=-0.86929598285557974 0.61626620777008101 -0.79290636285599225 0.30289401828697526 0.24159713879337591 0.11799254863611913 0.60645483714833281 -0.37698208034795033 -0.56679434687420671 0.20038966406603215 0.73304374286586382 -0.97783529779105116
leaf_count=54 74 73 95 69 58 60 66 53 56 54 88
internal_value=0 0.189965 -0.228698 -0.384967 -0.682927 0.253636 0.117149 0.224608 0.0966419 0.456053 -0.912132
internal_count=800 436 364 269 200 363 303 237 163 110 142
shrinkage=1


Tree=16
num_leaves=14
num_cat=0
split_feature=92 119 69 246 107 113 155 142 110 179 115 40 115
split_gain=2.34518 2.0202 2.08347 1.24116 1.21087 1.12284 1.04035 0.936361 0.757702 0.477165 0.666174 0.13664 0.0486732
threshold=1.0000000180025095e-35 1.0000000180025095e-35 1.0000000180025095e-35 1.5000000000000002 1.0000000180025095e-35 1.0000000180025095e-35 1.0000000180025095e-35 1.0000000180025095e-35 1.0000000180025095e-35 1.0000000180025095e-35 1.5000000000000002 2.5000000000000004 1.0000000180025095e-35
decision_type=2 2 2 2 2 2 2 2 2 2 2 2 2
left_child=1 2 3 5 -3 6 7 9 -8 10 12 -9 -1
right_child=-2 4 -4 -5 -6 -7 8 11 -10 -11 -12 -13 -14
leaf_value=0.13583536550649314 -0.95237718915850811 -0.6943264469944036 -0.78027916284857035 -1.2743856170848111 0.7580683749141004 -0.39575662533082823 -0.044176318887853429 -0.36448508837654109 -0.98326644486606218 -0.032301540495910788 0.5379751308213353 -0.041060082110661353 0.26891459598086431
leaf_count=56 78 55 58 49 50 68 51 51 54 59 63 54 54
internal_value=0 0.0769459 0.000162188 0.0619456 0.609068 0.0851423 0.144469 0.206605 -0.333437 0.286935 0.345447 -0.169373 0.18517
internal_count=800 722 617 559 105 510 442 337 105 232 173 105 110
shrinkage=1


Tree=17
num_leaves=12
num_cat=0
split_feature=118 38 206 266 14 24 110 221 124 71 40
split_gain=1.57078 2.2607 1.54291 0.855526 0.806252 1.91776 0.899026 0.723992 0.638914 1.17868 0.0256807
threshold=1.0000000180025095e-35 1.0000000180025095e-35 1.0000000180025095e-35 1.0000000180025095e-35 1.0000000180025095e-35 1.0000000180025095e-35 1.0000000180025095e-35 1.0000000180025095e-35 1.0000000180025095e-35 1.0000000180025095e-35 1.0000000180025095e-35
decision_type=2 2 2 2 2 2 2 2 2 2 2
left_child=2 -2 3 4 5 8 -7 -3 9 10 -1
right_child=1 7 -4 -5 -6 6 -8 -9 -10 -11 -12
leaf_value=0.19579393656771568 -1.0704101633524072 0.43444563114724538 0.52147108278944021 -1.2660215866190969 -0.37711988917572903 -0.071759722170607804 -0.81476283547629369 -0.29644805636358779 0.5393638137541692 -0.92560035176818345 0.30083537222349865
leaf_count=71 86 55 85 49 53 74 74 57 70 68 58
internal_value=0 -0.370167 0.103966 0.0053643 0.0275586 0.0944179 -0.356555 0.0057333 0.260702 0.13799 0.223421
internal_count=800 198 602 517 468 415 148 112 267 197 129
shrinkage=1


Tree=18
num_leaves=11
num_cat=0
split_feature=24 6 93 179 9 0 221 142 24 71
split_gain=1.92845 1.2566 0.856698 0.883675 0.918156 0.772042 1.63963 1.10307 0.956567 0.0951253
threshold=1.5000000000000002 1.0000000180025095e-35 1.0000000180025095e-35 1.0000000180025095e-35 1.0000000180025095e-35 1.0000000180025095e-35 1.0000000180025095e-35 1.0000000180025095e-35 1.0000000180025095e-35 1.0000000180025095e-35
decision_type=2 2 2 2 2 2 2 2 2 2
left_child=1 2 3 5 -5 6 8 -8 9 -1
right_child=-2 -3 -4 4 -6 -7 7 -9 -10 -11
leaf_value=0.06746741437904677 -1.4085530040694048 -0.85221424168543025 0.61479162181208358 0.049306017340596017 -0.60270643948830049 0.4279032931965564 -0.20173810029555472 -1.2977094832559992 0.53577832809728509 -0.19016571297964213
leaf_count=79 58 60 95 91 74 91 89 57 54 52
internal_value=0 0.0377438 0.0715494 0.0323585 -0.246708 0.116728 0.030637 -0.373501 0.210366 0.0222321
internal_count=800 742 682 587 165 422 331 146 185 131
shrinkage=1


Tree=19
num_leaves=12
num_cat=0
split_feature=158 104 245 83 221 87 212 87 71 47 115
split_gain=1.11689 1.20654 1.13641 0.899697 0.748268 1.24523 0.996061 0.92727 0.42357 1.27686 0.324427
threshold=1.0000000180025095e-35 1.0000000180025095e-35 1.0000000180025095e-35 1.0000000180025095e-35 1.0000000180025095e-35 1.5000000000000002 1.0000000180025095e-35 1.0000000180025095e-35 1.0000000180025095e-35 1.0000000180025095e-35 1.0000000180025095e-35
decision_type=2 2 2 2 2 2 2 2 2 2 2
left_child=1 2 3 8 5 6 -2 -6 10 -10 -1
right_child=4 -3 -4 -5 7 -7 -8 -9 9 -11 -12
leaf_value=-0.067832442350872074 0.4764519308790881 -0.70812081553392037 -1.3336685920774156 0.41509850997752007 -0.00045345881002830724 -0.64231308631287243 -0.52844708191243017 0.66117427185843902 0.33249257979622965 -0.72445181008605963 -0.43395145689359244
leaf_count=60 80 61 60 57 82 58 50 72 95 51 74
internal_value=0 -0.104655 -0.0236532 0.016209 0.228534 0.000894948 0.24896 0.422086 -0.0905891 0.103154 -0.221824
internal_count=800 458 397 337 342 188 130 154 280 146 134
shrinkage=1


Tree=20
num_leaves=13
num_cat=0
split_feature=142 38 118 249 18 26 9 19 52 36 115 8
split_gain=0.870099 1.03284 0.898823 0.78358 1.20968 0.583723 0.390874 0.630539 0.60301 1.0802 0.280385 0.42694
threshold=1.5000000000000002 1.5000000000000002 1.0000000180025095e-35 1.0000000180025095e-35 1.0000000180025095e-35 1.0000000180025095e-35 1.5000000000000002 1.0000000180025095e-35 1.0000000180025095e-35 1.0000000180025095e-35 1.0000000180025095e-35 1.0000000180025095e-35
decision_type=2 2 2 2 2 2 2 2 2 2 2 2
left_child=1 2 3 6 -5 -4 7 8 9 10 -1 -12
right_child=-2 -3 5 4 -6 -7 -8 -9 -10 -11 11 -13
leaf_value=0.25456470662146891 0.82094446855744652 -0.70460062347328589 -0.64294222070304452 -0.49493432674609511 0.2671298607180026 0.0099289326343894521 0.64385317031276112 -0.31160124964123254 -0.28263975633059968 -0.33237816673333404 0.70803584914162965 0.11918801858270557
leaf_count=52 62 83 92 59 66 58 49 51 49 55 67 57
internal_value=0 -0.00619725 0.0347175 0.105787 -0.150754 -0.335678 0.212406 0.167639 0.239399 0.311833 0.43157 0.565709
internal_count=800 738 655 505 125 150 380 331 280 231 176 124
shrinkage=1


Tree=21
num_leaves=13
num_cat=0
split_feature=37 69 221 88 131 159 30 40 40 37 197 37
split_gain=1.06229 1.21345 0.842271 0.659415 1.09217 0.757961 1.48945 1.85273 0.324224 0.214306 0.202331 0.13992
threshold=1.5000000000000002 1.0000000180025095e-35 1.0000000180025095e-35 1.0000000180025095e-35 1.5000000000000002 1.0000000180025095e-35 1.0000000180025095e-35 1.5000000000000002 1.0000000180025095e-35 1.0000000180025095e-35 1.0000000180025095e-35 1.0000000180025095e-35
decision_type=2 2 2 2 2 2 2 2 2 2 2 2
left_child=1 3 -2 4 5 6 7 8 -1 -6 -5 -9
right_child=2 -3 -4 10 9 -7 -8 11 -10 -11 -12 -13
leaf_value=-0.13090385589005937 -0.11654827659528177 -0.76709104040314058 0.87140194087273126 0.32389166022499966 -1.231043540392823 0.28564863498497961 0.72009971093330438 -1.0130882991710428 0.33653324960666264 -0.36740123669069119 0.031266504093090883 -0.64954793678152967
leaf_count=63 67 63 53 57 84 88 50 50 57 54 60 54
internal_value=0 -0.0317251 0.527617 0.0204082 -0.089956 -0.0243974 -0.161885 -0.298976 0.0549912 -0.961319 0.222559 -0.789927
internal_count=800 680 120 617 500 362 274 224 120 138 117 104
shrinkage=1


Tree=22
num_leaves=12
num_cat=0
split_feature=107 197 246 87 73 9 135 105 87 131 87
split_gain=0.882339 0.991041 0.666757 0.605881 0.427779 0.47408 0.417216 0.582501 0.741592 0.692538 0.133607
threshold=1.0000000180025095e-35 1.0000000180025095e-35 1.0000000180025095e-35 1.0000000180025095e-35 1.0000000180025095e-35 1.0000000180025095e-35 1.0000000180025095e-35 1.0000000180025095e-35 1.0000000180025095e-35 1.0000000180025095e-35 1.5000000000000002
decision_type=2 2 2 2 2 2 2 2 2 2 2
left_child=1 3 6 4 5 -1 7 8 -2 -9 -10
right_child=2 -3 -4 -5 -6 -7 -8 9 10 -11 -12
leaf_value=0.016278921421020359 -0.27757537970220814 -1.1538191672354896 -0.55950224018585981 -0.59669594015110017 0.32369664656177749 -0.5316922202231823 -0.38528098993273463 0.80840088946339739 0.45663132180679789 0.039268027254609712 0.18241922809684391
leaf_count=86 84 71 73 95 55 57 50 53 50 72 54
internal_value=0 -0.181951 0.152284 -0.108922 -0.0132806 -0.130192 0.203799 0.245568 0.1145 0.52625 0.289738
internal_count=800 364 436 293 198 143 363 313 188 125 104
shrinkage=1


Tree=23
num_leaves=13
num_cat=0
split_feature=81 221 157 57 18 197 40 9 105 40 124 37
split_gain=0.595339 0.575325 0.847722 0.878134 0.654107 0.796067 0.49535 0.306476 0.193175 0.3881 0.18631 0.107297
threshold=1.0000000180025095e-35 1.5000000000000002 1.0000000180025095e-35 1.0000000180025095e-35 1.5000000000000002 1.0000000180025095e-35 1.5000000000000002 1.0000000180025095e-35 1.0000000180025095e-35 1.0000000180025095e-35 1.0000000180025095e-35 1.0000000180025095e-35
decision_type=2 2 2 2 2 2 2 2 2 2 2 2
left_child=1 2 3 4 5 8 -7 10 9 -1 -8 -4
right_child=-2 -3 11 -5 -6 6 7 -9 -10 -11 -12 -13
leaf_value=0.15427261366262185 -1.0902524943844076 0.49774386929993381 -0.38131753764762805 -0.56640924657183989 0.51797757703150804 -0.79092847249759302 0.39673228344282302 -0.50139852688261899 -0.1270465745334865 0.64059028362444015 -0.075327265334569363 -0.80222760810809624
leaf_count=62 96 75 56 74 62 52 53 59 49 50 58 54
internal_value=0 0.0274729 -0.0153252 0.0548178 0.116972 0.0380728 -0.201412 -0.0922342 0.230494 0.286899 0.0231126 -0.476596
internal_count=800 704 629 519 445 383 222 170 161 112 111 110
shrinkage=1


Tree=24
num_leaves=13
num_cat=0
split_feature=141 71 242 14 9 18 115 37 47 38 9 115
split_gain=0.570313 0.520354 0.844528 0.797609 1.09376 0.500599 0.419696 0.248884 0.24455 0.126968 0.114948 0.0112383
threshold=1.0000000180025095e-35 1.0000000180025095e-35 1.5000000000000002 1.0000000180025095e-35 1.0000000180025095e-35 1.0000000180025095e-35 1.5000000000000002 1.0000000180025095e-35 1.0000000180025095e-35 1.0000000180025095e-35 1.5000000000000002 1.0000000180025095e-35
decision_type=2 2 2 2 2 2 2 2 2 2 2 2
left_child=1 3 5 4 6 8 11 -7 9 -3 -6 -1
right_child=-2 2 -4 -5 10 7 -8 -9 -10 -11 -12 -13
leaf_value=-0.28164967316842454 -0.92668602668063826 -0.36853679302475506 -0.40622415242350524 -0.73773415997852343 0.5995355736849064 0.69790521874729639 0.25496110621844392 0.16076484928757459 -0.41262065806092113 0.23537217620289635 0.25863096047303658 -0.36363201742653778
leaf_count=57 51 69 74 57 53 69 62 53 74 66 53 62
internal_value=0 0.0293514 0.18282 -0.0984852 -0.012256 0.30177 -0.208832 0.55428 0.104077 0.188224 0.424136 -0.311777
internal_count=800 749 405 344 287 331 181 122 209 135 106 119
shrinkage=1


Tree=25
num_leaves=13
num_cat=0
split_feature=19 171 37 142 0 107 99 249 9 160 71 24
split_gain=0.493618 0.665813 0.725405 0.821642 0.662467 0.530911 0.515505 0.704589 1.15412 0.264591 0.186451 0.0375692
threshold=1.0000000180025095e-35 1.0000000180025095e-35 1.5000000000000002 1.0000000180025095e-35 1.0000000180025095e-35 1.0000000180025095e-35 1.0000000180025095e-35 1.0000000180025095e-35 1.0000000180025095e-35 1.0000000180025095e-35 1.0000000180025095e-35 1.0000000180025095e-35
decision_type=2 2 2 2 2 2 2 2 2 2 2 2
left_child=1 2 3 6 5 -2 7 8 10 11 -1 -5
right_child=4 -3 -4 9 -6 -7 -8 -9 -10 -11 -12 -13
leaf_value=0.64818013221598836 -1.0138207394440892 -0.64289782023388053 0.76840113674841004 -0.44761264920605986 0.45901202863047746 -0.21744373872972639 -0.30509669621690183 -0.16802573431764534 -0.46590411695668332 -0.90122821671162723 0.30093129599329782 -0.14339645920590119
leaf_count=63 62 69 60 51 54 62 49 55 54 71 96 54
internal_value=0 0.0878964 0.134852 0.0720498 -0.256054 -0.430341 0.173861 0.252326 0.394543 -0.414479 0.546849 -0.225103
internal_count=800 622 553 493 178 124 317 268 213 176 159 105
shrinkage=1


end of trees

feature importances:
115=22
9=13
87=11
107=10
221=10
38=9
40=9
18=8
37=8
71=8
110=7
131=7
197=7
8=6
24=6
88=5
105=5
124=5
142=5
159=5
3=4
19=4
118=4
158=4
179=4
242=4
246=4
249=4
0=3
22=3
36=3
47=3
69=3
83=3
117=3
155=3
160=3
14=2
26=2
30=2
52=2
54=2
73=2
76=2
77=2
81=2
92=2
93=2
99=2
113=2
136=2
157=2
206=2
212=2
245=2
247=2
255=2
256=2
1=1
6=1
11=1
13=1
46=1
48=1
57=1
61=1
86=1
94=1
101=1
104=1
119=1
135=1
141=1
143=1
167=1
171=1
183=1
189=1
211=1
216=1
226=1
248=1
266=1

parameters:
[boosting: gbdt]
[objective: binary]
[metric: auc]
[tree_learner: serial]
[device_type: cpu]
[data: ]
[valid: ]
[num_iterations: 100]
[learning_rate: 1]
[num_leaves: 80]
[num_threads: 0]
[max_depth: 30]
[min_data_in_leaf: 49]
[min_sum_hessian_in_leaf: 0]
[bagging_fraction: 0.83122]
[bagging_freq: 0]
[bagging_seed: 3]
[feature_fraction: 0.87559]
[feature_fraction_seed: 2]
[early_stopping_round: 0]
[max_delta_step: 0]
[lambda_l1: 0]
[lambda_l2: 0]
[min_gain_to_split: 0]
[drop_rate: 0.1]
[max_drop: 50]
[skip_drop: 0.5]
[xgboost_dart_mode: 0]
[uniform_drop: 0]
[drop_seed: 4]
[top_rate: 0.2]
[other_rate: 0.1]
[min_data_per_group: 100]
[max_cat_threshold: 32]
[cat_l2: 10]
[cat_smooth: 10]
[max_cat_to_onehot: 4]
[top_k: 20]
[monotone_constraints: ]
[feature_contri: ]
[forcedsplits_filename: ]
[refit_decay_rate: 0.9]
[verbosity: 1]
[max_bin: 90]
[min_data_in_bin: 3]
[bin_construct_sample_cnt: 200000]
[histogram_pool_size: -1]
[data_random_seed: 1]
[output_model: LightGBM_model.txt]
[snapshot_freq: -1]
[input_model: ]
[output_result: LightGBM_predict_result.txt]
[initscore_filename: ]
[valid_data_initscores: ]
[pre_partition: 0]
[enable_bundle: 1]
[max_conflict_rate: 0]
[is_enable_sparse: 1]
[sparse_threshold: 0.8]
[use_missing: 1]
[zero_as_missing: 0]
[two_round: 0]
[save_binary: 0]
[enable_load_from_binary_file: 1]
[header: 0]
[label_column: ]
[weight_column: ]
[group_column: ]
[ignore_column: ]
[categorical_feature: ]
[predict_raw_score: 0]
[predict_leaf_index: 0]
[predict_contrib: 0]
[num_iteration_predict: -1]
[pred_early_stop: 0]
[pred_early_stop_freq: 10]
[pred_early_stop_margin: 10]
[convert_model_language: ]
[convert_model: gbdt_prediction.cpp]
[num_class: 1]
[is_unbalance: 1]
[scale_pos_weight: 1]
[sigmoid: 1]
[boost_from_average: 0]
[reg_sqrt: 0]
[alpha: 0.9]
[fair_c: 1]
[poisson_max_delta_step: 0.7]
[tweedie_variance_power: 1.5]
[max_position: 20]
[label_gain: ]
[metric_freq: 1]
[is_provide_training_metric: 0]
[eval_at: ]
[num_machines: 1]
[local_listen_port: 12400]
[time_out: 120]
[machine_list_filename: ]
[machines: ]
[gpu_platform_id: -1]
[gpu_device_id: -1]
[gpu_use_dp: 0]

end of parameters

pandas_categorical:[]
