tree
version=v2
num_class=1
num_tree_per_iteration=1
label_index=0
max_feature_idx=269
objective=binary sigmoid:1
feature_names=0 1 2 3 4 5 6 7 8 9 10 11 12 13 14 15 16 17 18 19 20 21 22 23 24 25 26 27 28 29 30 31 32 33 34 35 36 37 38 39 40 41 42 43 44 45 46 47 48 49 50 51 52 53 54 55 56 57 58 59 60 61 62 63 64 65 66 67 68 69 70 71 72 73 74 75 76 77 78 79 80 81 82 83 84 85 86 87 88 89 90 91 92 93 94 95 96 97 98 99 100 101 102 103 104 105 106 107 108 109 110 111 112 113 114 115 116 117 118 119 120 121 122 123 124 125 126 127 128 129 130 131 132 133 134 135 136 137 138 139 140 141 142 143 144 145 146 147 148 149 150 151 152 153 154 155 156 157 158 159 160 161 162 163 164 165 166 167 168 169 170 171 172 173 174 175 176 177 178 179 180 181 182 183 184 185 186 187 188 189 190 191 192 193 194 195 196 197 198 199 200 201 202 203 204 205 206 207 208 209 210 211 212 213 214 215 216 217 218 219 220 221 222 223 224 225 226 227 228 229 230 231 232 233 234 235 236 237 238 239 240 241 242 243 244 245 246 247 248 249 250 251 252 253 254 255 256 257 258 259 260 261 262 263 264 265 266 267 268 269
feature_infos=[0:6] [0:3] none [0:7] none none [0:4] none [0:6] [0:16] none [0:6] none [0:4] [0:16] [0:4] none [0:4] [0:7] [0:6] none none [0:6] none [0:6] none [0:8] none [0:3] none [0:5] none none none [0:4] [0:4] [0:7] [0:7] [0:7] none [0:7] none [0:5] none none none [0:6] [0:4] [0:4] none none none [0:8] none [0:5] none none [0:9] none none [0:3] [0:3] none none [0:9] none none none [0:6] [0:4] [0:5] [0:9] none [0:25] none none [0:7] [0:5] none none none [0:15] none [0:9] [0:5] none [0:4] [0:10] [0:7] none none none [0:10] [0:7] [0:2] [0:4] none none none [0:8] [0:6] [0:4] none none [0:3] [0:10] none [0:4] none [0:9] [0:10] [0:2] none [0:4] [0:7] [0:21] none [0:6] [0:5] [0:5] none none none none [0:4] none none [0:5] none none none [0:10] [0:9] [0:5] none [0:2] [0:9] none none [0:2] none none [0:11] [0:2] none none none none [0:3] none none none none none none [0:3] none [0:14] [0:4] [0:9] [0:6] none none none none [0:5] [0:4] [0:4] none [0:2] none [0:4] [0:4] none [0:3] none none none [0:3] [0:6] [0:5] none none [0:4] [0:7] none none [0:4] none [0:8] [0:5] none none none none [0:3] [0:7] [0:8] none none none none none none [0:2] [0:3] [0:3] none none none none [0:3] [0:13] [0:5] none none [0:4] none none none none [0:14] none [0:4] [0:2] [0:3] [0:3] none none [0:5] none [0:10] none none none none none none none none none none [0:6] none none [0:10] [0:15] [0:3] [0:4] [0:11] none none none none [0:9] [0:7] [0:3] none [0:5] none [0:6] none none none none none [0:5] none none none
tree_sizes=926 1031 962 1122 973 1110 971 1120 1049 969 1048

Tree=0
num_leaves=11
num_cat=0
split_feature=88 159 3 26 117 9 197 142 131 15
split_gain=169.816 110.098 75.3229 29.4279 22.8086 19.118 12.7423 10.6921 13.8863 14.7962
threshold=1.0000000180025095e-35 1.0000000180025095e-35 1.0000000180025095e-35 1.0000000180025095e-35 1.0000000180025095e-35 1.0000000180025095e-35 1.0000000180025095e-35 1.0000000180025095e-35 1.5000000000000002 1.0000000180025095e-35
decision_type=2 2 2 2 2 2 2 2 2 2
left_child=1 2 3 7 -3 -2 -4 8 9 -1
right_child=5 4 6 -5 -6 -7 -8 -9 -10 -11
leaf_value=-1.5294117763526276 1.4127979784190845 1.0561797550539971 -0.47533634933480606 -0.37125751211266333 -0.19011409623686112 0.47272724624507639 0.57297294722585579 -2 -2 -0.38095240798396618
leaf_count=87 79 66 51 74 55 63 58 132 79 56
internal_value=0 -0.451346 -0.867206 -1.27851 0.644918 1.1066 0.178752 -1.53663 -1.30077 -0.994455
internal_count=800 658 537 428 121 142 109 354 222 143
shrinkage=1


Tree=1
num_leaves=12
num_cat=0
split_feature=46 212 131 197 107 115 115 115 159 40 197
split_gain=51.4486 46.404 29.7302 22.0827 27.7002 20.2321 12.7824 10.3052 7.7019 7.34946 2.60736
threshold=1.0000000180025095e-35 1.0000000180025095e-35 1.5000000000000002 2.5000000000000004 1.0000000180025095e-35 2.5000000000000004 1.5000000000000002 1.0000000180025095e-35 1.0000000180025095e-35 1.5000000000000002 1.0000000180025095e-35
decision_type=2 2 2 2 2 2 2 2 2 2 2
left_child=1 2 3 4 7 10 -2 -1 -6 -4 -3
right_child=6 5 9 -5 8 -7 -8 -9 -10 -11 -12
leaf_value=-0.48422135387360504 -2.2315678148523936 -1.8555745364990832 -0.13404588468632161 -0.50340876552618763 0.63995340629357989 -0.070493322537001316 -0.80941185526569226 0.38887772399658876 1.2189064735159232 -1.3036752660908548 -1.1765394521681236
leaf_count=82 51 56 52 72 97 58 64 82 53 82 51
internal_value=0 0.0978926 0.303218 0.445062 0.582742 -0.880292 -1.3768 0.0258162 0.919559 -0.794386 -1.5036
internal_count=800 685 520 386 314 165 115 164 150 134 107
shrinkage=1


Tree=2
num_leaves=11
num_cat=0
split_feature=246 18 136 242 54 115 105 77 159 40
split_gain=49.5408 21.8934 17.8145 13.9065 8.58993 7.37281 6.89788 6.31474 5.90963 2.07847
threshold=1.0000000180025095e-35 1.5000000000000002 1.0000000180025095e-35 1.5000000000000002 1.0000000180025095e-35 1.5000000000000002 1.0000000180025095e-35 1.0000000180025095e-35 1.0000000180025095e-35 1.0000000180025095e-35
decision_type=2 2 2 2 2 2 2 2 2 2
left_child=1 2 3 4 6 -2 7 8 9 -1
right_child=5 -3 -4 -5 -6 -7 -8 -9 -10 -11
leaf_value=0.50808382884009373 -0.66775205673281668 0.89286280217714631 -1.4332235045318398 -0.76880673723987702 -0.36939226388783852 -1.6586652584975687 0.76204201814653505 0.67801599423451642 -0.48941603579440746 0.0052140846761310269
leaf_count=61 82 96 55 66 98 89 91 49 50 63
internal_value=0 0.203248 0.0242383 0.111049 0.229989 -1.18447 0.352415 0.179181 -0.00612104 0.239359
internal_count=800 629 533 478 412 171 314 223 174 124
shrinkage=1


Tree=3
num_leaves=13
num_cat=0
split_feature=256 61 3 83 118 88 0 8 40 101 117 18
split_gain=33.8995 22.1778 17.4993 10.0212 8.69215 7.67589 7.60048 13.6496 7.32327 7.13647 6.26538 2.33083
threshold=1.0000000180025095e-35 1.0000000180025095e-35 1.0000000180025095e-35 1.0000000180025095e-35 1.0000000180025095e-35 1.0000000180025095e-35 1.0000000180025095e-35 1.0000000180025095e-35 1.5000000000000002 1.0000000180025095e-35 1.0000000180025095e-35 1.0000000180025095e-35
decision_type=2 2 2 2 2 2 2 2 2 2 2 2
left_child=1 2 3 4 5 6 7 8 -1 -2 -5 -4
right_child=9 -3 11 10 -6 -7 -8 -9 -10 -11 -12 -13
leaf_value=0.17764122144531719 -2.0841158401463984 -1.2115809211776414 0.44771378519384092 0.79326819934448844 -0.99928607625469934 0.42793413905866312 0.34025799805881035 -1.610476532396361 -0.94817567448158901 -0.79429441122233058 -0.17297832510372135 0.88707671039347147
leaf_count=76 55 66 52 49 79 50 54 84 68 53 49 65
internal_value=0 0.117097 0.211675 -0.00303108 -0.181987 -0.0554326 -0.273658 -0.520599 -0.170311 -1.3389 0.484365 0.70636
internal_count=800 692 626 509 411 332 282 228 144 108 98 117
shrinkage=1


Tree=4
num_leaves=11
num_cat=0
split_feature=107 254 249 83 37 18 77 179 40 40
split_gain=17.6201 18.0188 12.6809 10.6864 21.1145 9.45246 6.29246 5.97488 3.84748 1.75069
threshold=1.0000000180025095e-35 1.0000000180025095e-35 1.0000000180025095e-35 1.0000000180025095e-35 1.0000000180025095e-35 1.0000000180025095e-35 1.0000000180025095e-35 1.0000000180025095e-35 2.5000000000000004 1.0000000180025095e-35
decision_type=2 2 2 2 2 2 2 2 2 2
left_child=1 2 7 4 5 -2 8 9 -6 -1
right_child=3 -3 -4 -5 6 -7 -8 -9 -10 -11
leaf_value=-0.47214896048420074 -0.090081262561670289 -2.052278147710914 -0.99791323336219795 0.69362647801234423 0.089930978180114904 0.91719246560316881 -1.4183235994518943 0.57332632514705573 -0.76814749284355022 0.033277087383607309
leaf_count=68 92 70 81 102 50 52 58 68 86 73
internal_value=0 -0.436076 -0.262344 0.234633 0.00303293 0.490293 -0.645529 0.0351756 -0.361452 -0.233934
internal_count=800 360 290 440 338 144 194 209 136 141
shrinkage=1


Tree=5
num_leaves=13
num_cat=0
split_feature=76 113 9 245 54 115 110 19 101 160 197 71
split_gain=14.2422 24.4651 11.3588 8.1321 6.3325 8.64247 7.77251 4.58104 4.33498 2.82028 3.21679 1.00086
threshold=1.0000000180025095e-35 1.0000000180025095e-35 1.5000000000000002 1.0000000180025095e-35 1.0000000180025095e-35 1.5000000000000002 1.0000000180025095e-35 1.0000000180025095e-35 1.0000000180025095e-35 1.0000000180025095e-35 1.5000000000000002 1.0000000180025095e-35
decision_type=2 2 2 2 2 2 2 2 2 2 2 2
left_child=1 3 -2 4 5 7 -6 8 11 10 -7 -1
right_child=2 -3 -4 -5 6 9 -8 -9 -10 -11 -12 -13
leaf_value=0.53297993513974673 -1.933038432089329 -1.2634850083660472 -0.13393154670552615 -1.0348949789274882 0.26817829766793894 0.54961364483446429 -1.0552359274309946 -0.4905572560596867 -0.33237853322553634 0.28948502607529497 1.1516740678009449 0.14252405109500021
leaf_count=78 65 76 61 56 67 68 63 50 50 60 51 55
internal_value=0 0.111851 -0.940878 0.242229 0.293322 0.392352 -0.240309 0.114823 0.257131 0.700452 0.843724 0.427929
internal_count=800 674 126 598 542 412 130 233 183 179 119 133
shrinkage=1


Tree=6
num_leaves=11
num_cat=0
split_feature=114 52 105 8 159 242 179 30 8 87
split_gain=11.0754 9.84038 9.17585 7.6472 5.35756 7.20744 2.85191 1.86957 1.76303 0.021707
threshold=1.0000000180025095e-35 1.0000000180025095e-35 1.0000000180025095e-35 1.0000000180025095e-35 1.0000000180025095e-35 1.0000000180025095e-35 1.0000000180025095e-35 1.0000000180025095e-35 1.0000000180025095e-35 1.0000000180025095e-35
decision_type=2 2 2 2 2 2 2 2 2 2
left_child=1 2 4 9 5 -1 7 8 -3 -4
right_child=-2 6 3 -5 -6 -7 -8 -9 -10 -11
leaf_value=-0.14840381833257674 0.82413032112323514 -0.73584064272978089 0.68807145407159576 -0.53267602419899318 0.16788935079291822 -1.1430952732146558 -1.0841773242342774 -1.0370921710859458 0.091380808860092755 0.74617716131748246
leaf_count=141 65 53 49 72 90 96 85 51 49 49
internal_value=0 -0.101606 0.0458555 0.478617 -0.179923 -0.42952 -0.664734 -0.388246 -0.193841 0.713477
internal_count=800 735 497 170 327 237 238 153 102 98
shrinkage=1


Tree=7
num_leaves=13
num_cat=0
split_feature=3 92 81 88 231 155 48 15 40 115 159 24
split_gain=10.4131 8.18171 8.5918 5.9714 7.23689 5.66376 3.7249 7.21568 3.76067 1.31318 0.309162 0.130791
threshold=1.5000000000000002 1.0000000180025095e-35 1.0000000180025095e-35 1.0000000180025095e-35 1.0000000180025095e-35 1.0000000180025095e-35 1.0000000180025095e-35 1.0000000180025095e-35 2.5000000000000004 1.0000000180025095e-35 1.0000000180025095e-35 1.0000000180025095e-35
decision_type=2 2 2 2 2 2 2 2 2 2 2 2
left_child=1 2 3 4 5 6 7 9 -9 -1 -5 -7
right_child=-2 -3 -4 10 -6 11 -8 8 -10 -11 -12 -13
leaf_value=-1.0157325792526184 0.73944512362989678 -1.4477891682202899 -1.4664440554299158 0.2720728786602768 -1.3822667237762507 -1.0249489255858173 0.54761321462775814 0.432351854406957 -0.51385919102539623 -0.40908469230042527 0.46537613763927893 -0.72404580296239351
leaf_count=49 58 62 71 60 66 61 53 96 51 74 49 50
internal_value=0 -0.100893 -0.0426286 0.017754 -0.165012 -0.0697407 0.0438418 -0.100762 0.228694 -0.652039 0.358555 -0.931352
internal_count=800 742 680 609 500 434 323 270 147 123 109 111
shrinkage=1


Tree=8
num_leaves=12
num_cat=0
split_feature=99 86 139 24 109 18 73 9 24 38 15
split_gain=7.42425 6.94625 6.46213 3.56087 3.13152 3.88804 9.68796 7.09514 3.40046 2.44997 1.05512
threshold=1.5000000000000002 1.0000000180025095e-35 1.0000000180025095e-35 1.0000000180025095e-35 1.0000000180025095e-35 1.0000000180025095e-35 1.0000000180025095e-35 1.0000000180025095e-35 1.0000000180025095e-35 1.0000000180025095e-35 1.0000000180025095e-35
decision_type=2 2 2 2 2 2 2 2 2 2 2
left_child=1 2 4 -4 5 6 7 8 10 -7 -1
right_child=-2 -3 3 -5 -6 9 -8 -9 -10 -11 -12
leaf_value=0.50464130231068938 0.80424038093461081 -1.2946939948458394 -1.2360301445890631 -0.21820457107056476 0.63434782325224126 0.56448592113686547 -1.5119130200912951 -1.0438136302394643 -0.61383545668802042 -0.06602683746564042 0.091254457632776731
leaf_count=75 58 51 91 75 57 86 58 49 62 77 61
internal_value=0 -0.0951991 -0.0332892 -0.656416 0.0833015 0.00745754 -0.186624 -0.00481464 0.188325 0.31162 0.330507
internal_count=800 742 691 166 525 468 305 247 198 163 136
shrinkage=1


Tree=9
num_leaves=11
num_cat=0
split_feature=254 69 136 93 3 160 159 22 101 221
split_gain=6.26606 4.67391 4.36553 4.61136 4.23625 6.33992 3.09806 3.07918 1.50461 1.13108
threshold=1.5000000000000002 1.0000000180025095e-35 1.0000000180025095e-35 1.0000000180025095e-35 1.0000000180025095e-35 1.0000000180025095e-35 1.0000000180025095e-35 1.0000000180025095e-35 1.0000000180025095e-35 1.0000000180025095e-35
decision_type=2 2 2 2 2 2 2 2 2 2
left_child=1 2 3 4 5 6 7 9 -7 -1
right_child=-2 -3 -4 -5 -6 8 -8 -9 -10 -11
leaf_value=0.34412758299271851 -1.7533778520373258 -0.67885671420326221 -0.74894750061794491 -0.76134044646680954 0.57237036784730666 -0.35240313315992061 0.5455408713911073 -0.73856622655395421 -1.159509874866204 -0.23805542763264814
leaf_count=89 51 79 86 58 96 69 78 77 61 56
internal_value=0 0.0596328 0.126097 0.183204 0.242735 0.0761531 0.253865 -0.00630064 -0.619969 0.188567
internal_count=800 749 670 584 526 430 300 222 130 145
shrinkage=1


Tree=10
num_leaves=12
num_cat=0
split_feature=26 107 197 52 115 246 249 101 115 70 8
split_gain=5.78755 8.89814 5.64082 3.353 2.53314 2.49519 2.07296 1.98002 1.57974 1.29546 2.34679
threshold=1.0000000180025095e-35 1.0000000180025095e-35 1.0000000180025095e-35 1.0000000180025095e-35 1.0000000180025095e-35 1.0000000180025095e-35 1.0000000180025095e-35 1.0000000180025095e-35 1.5000000000000002 1.0000000180025095e-35 1.0000000180025095e-35
decision_type=2 2 2 2 2 2 2 2 2 2 2
left_child=1 2 4 7 -1 6 9 -2 -6 10 -3
right_child=3 5 -4 -5 8 -7 -8 -9 -10 -11 -12
leaf_value=-0.94530906676449356 0.3710348014699375 0.10154213217659951 -2.1740238206607447 0.79105573020655473 -0.012124509303783549 -0.82085878148186553 0.63683424240923103 -0.26860594891269335 -0.88487853256761317 0.3750045721211388 -0.81776518164117451
leaf_count=87 58 87 60 82 75 57 52 59 56 56 71
internal_value=0 -0.16217 -0.667042 0.366968 -0.495288 0.141664 0.213248 0.120777 -0.207565 0.0680602 -0.100069
internal_count=800 601 278 199 218 323 266 117 131 214 158
shrinkage=1


end of trees

feature importances:
115=8
40=6
159=6
197=5
3=4
8=4
18=4
101=4
9=3
15=3
24=3
88=3
107=3
26=2
52=2
54=2
77=2
83=2
105=2
117=2
131=2
136=2
160=2
179=2
242=2
246=2
249=2
254=2
0=1
19=1
22=1
30=1
37=1
38=1
46=1
48=1
61=1
69=1
70=1
71=1
73=1
76=1
81=1
86=1
87=1
92=1
93=1
99=1
109=1
110=1
113=1
114=1
118=1
139=1
142=1
155=1
212=1
221=1
231=1
245=1
256=1

parameters:
[boosting: gbdt]
[objective: binary]
[metric: auc]
[tree_learner: serial]
[device_type: cpu]
[data: ]
[valid: ]
[num_iterations: 100]
[learning_rate: 1]
[num_leaves: 80]
[num_threads: 0]
[max_depth: 30]
[min_data_in_leaf: 49]
[min_sum_hessian_in_leaf: 0]
[bagging_fraction: 0.83122]
[bagging_freq: 0]
[bagging_seed: 3]
[feature_fraction: 0.87559]
[feature_fraction_seed: 2]
[early_stopping_round: 0]
[max_delta_step: 0]
[lambda_l1: 0]
[lambda_l2: 0]
[min_gain_to_split: 0]
[drop_rate: 0.1]
[max_drop: 50]
[skip_drop: 0.5]
[xgboost_dart_mode: 0]
[uniform_drop: 0]
[drop_seed: 4]
[top_rate: 0.2]
[other_rate: 0.1]
[min_data_per_group: 100]
[max_cat_threshold: 32]
[cat_l2: 10]
[cat_smooth: 10]
[max_cat_to_onehot: 4]
[top_k: 20]
[monotone_constraints: ]
[feature_contri: ]
[forcedsplits_filename: ]
[refit_decay_rate: 0.9]
[verbosity: 1]
[max_bin: 90]
[min_data_in_bin: 3]
[bin_construct_sample_cnt: 200000]
[histogram_pool_size: -1]
[data_random_seed: 1]
[output_model: LightGBM_model.txt]
[snapshot_freq: -1]
[input_model: ]
[output_result: LightGBM_predict_result.txt]
[initscore_filename: ]
[valid_data_initscores: ]
[pre_partition: 0]
[enable_bundle: 1]
[max_conflict_rate: 0]
[is_enable_sparse: 1]
[sparse_threshold: 0.8]
[use_missing: 1]
[zero_as_missing: 0]
[two_round: 0]
[save_binary: 0]
[enable_load_from_binary_file: 1]
[header: 0]
[label_column: ]
[weight_column: ]
[group_column: ]
[ignore_column: ]
[categorical_feature: ]
[predict_raw_score: 0]
[predict_leaf_index: 0]
[predict_contrib: 0]
[num_iteration_predict: -1]
[pred_early_stop: 0]
[pred_early_stop_freq: 10]
[pred_early_stop_margin: 10]
[convert_model_language: ]
[convert_model: gbdt_prediction.cpp]
[num_class: 1]
[is_unbalance: 1]
[scale_pos_weight: 1]
[sigmoid: 1]
[boost_from_average: 0]
[reg_sqrt: 0]
[alpha: 0.9]
[fair_c: 1]
[poisson_max_delta_step: 0.7]
[tweedie_variance_power: 1.5]
[max_position: 20]
[label_gain: ]
[metric_freq: 1]
[is_provide_training_metric: 0]
[eval_at: ]
[num_machines: 1]
[local_listen_port: 12400]
[time_out: 120]
[machine_list_filename: ]
[machines: ]
[gpu_platform_id: -1]
[gpu_device_id: -1]
[gpu_use_dp: 0]

end of parameters

pandas_categorical:[]
