tree
version=v2
num_class=1
num_tree_per_iteration=1
label_index=0
max_feature_idx=269
objective=binary sigmoid:1
feature_names=0 1 2 3 4 5 6 7 8 9 10 11 12 13 14 15 16 17 18 19 20 21 22 23 24 25 26 27 28 29 30 31 32 33 34 35 36 37 38 39 40 41 42 43 44 45 46 47 48 49 50 51 52 53 54 55 56 57 58 59 60 61 62 63 64 65 66 67 68 69 70 71 72 73 74 75 76 77 78 79 80 81 82 83 84 85 86 87 88 89 90 91 92 93 94 95 96 97 98 99 100 101 102 103 104 105 106 107 108 109 110 111 112 113 114 115 116 117 118 119 120 121 122 123 124 125 126 127 128 129 130 131 132 133 134 135 136 137 138 139 140 141 142 143 144 145 146 147 148 149 150 151 152 153 154 155 156 157 158 159 160 161 162 163 164 165 166 167 168 169 170 171 172 173 174 175 176 177 178 179 180 181 182 183 184 185 186 187 188 189 190 191 192 193 194 195 196 197 198 199 200 201 202 203 204 205 206 207 208 209 210 211 212 213 214 215 216 217 218 219 220 221 222 223 224 225 226 227 228 229 230 231 232 233 234 235 236 237 238 239 240 241 242 243 244 245 246 247 248 249 250 251 252 253 254 255 256 257 258 259 260 261 262 263 264 265 266 267 268 269
feature_infos=[0:6] [0:3] none [0:6] none none [0:4] none [0:6] [0:16] none [0:6] none [0:3] [0:16] [0:5] none [0:4] [0:9] [0:7] none none [0:6] none [0:6] none [0:8] none [0:3] none [0:5] none none none [0:5] [0:4] [0:7] [0:7] [0:7] none [0:7] none [0:5] none none none [0:6] [0:3] [0:4] none none none [0:10] [0:9] [0:5] none none [0:9] none none [0:3] [0:3] none none [0:9] none none none [0:6] [0:4] [0:5] [0:9] none [0:25] none none [0:7] [0:5] none none none [0:15] none [0:9] [0:6] none [0:4] [0:9] [0:3] none none none [0:10] [0:6] [0:4] [0:5] none none none [0:8] [0:6] [0:5] none none [0:3] [0:10] [0:3] [0:4] none [0:9] [0:10] none none [0:4] [0:7] [0:21] none [0:7] [0:5] [0:5] none none none none [0:5] none none [0:5] none none [0:5] [0:10] [0:9] [0:5] none [0:3] [0:7] none none [0:2] none none [0:11] [0:4] none none none none [0:4] none none none none none none [0:3] none [0:9] [0:8] [0:9] [0:6] none none none none [0:5] [0:4] [0:6] none [0:1] none [0:4] [0:4] none none none none none [0:3] [0:6] [0:7] none none [0:4] [0:7] none none [0:7] none [0:4] [0:5] [0:13] none none none [0:3] [0:7] [0:8] none none none none none none [0:2] [0:3] [0:3] none none none none [0:3] [0:17] [0:5] none none [0:4] none none none none [0:14] none [0:3] [0:2] [0:3] [0:4] none none [0:5] none [0:10] none none none none none none none none none none [0:6] none none [0:10] [0:15] [0:3] [0:4] [0:11] none none none none [0:9] [0:7] [0:3] none [0:10] none [0:6] none none none none none [0:5] none none none
tree_sizes=787 1113 1040 1049 1050 1049 1035 1047 1054 1120 1041 1044 1048 1133 1052 971 1056 1057 1051 1054 1063 1135 1064 1139 980 985 1073 1057 1062 979 1066 1059 990 1141

Tree=0
num_leaves=9
num_cat=0
split_feature=88 159 87 3 40 117 124 18
split_gain=210.245 93.8282 42.6707 51.0793 23.0162 16.9832 14.2834 0.95397
threshold=1.0000000180025095e-35 1.0000000180025095e-35 1.5000000000000002 1.0000000180025095e-35 1.0000000180025095e-35 1.0000000180025095e-35 1.0000000180025095e-35 1.0000000180025095e-35
decision_type=2 2 2 2 2 2 2 2
left_child=1 2 3 4 -1 -3 -2 -6
right_child=6 5 -4 -5 7 -7 -8 -9
leaf_value=-0.84745765013175622 0.85029937821832435 0.83870965430280731 -0.020790048836234882 -0.14392062343749676 -2 -0.19269105768921124 1.5978835877384101 -1.7443609089678587
leaf_count=90 92 73 95 83 171 63 49 84
internal_value=0 -0.518102 -0.92117 -1.20313 -1.57988 0.463768 1.19352 -1.91271
internal_count=800 659 523 428 345 136 141 255
shrinkage=1


Tree=1
num_leaves=13
num_cat=0
split_feature=246 107 131 197 197 87 9 9 40 160 158 71
split_gain=121.913 34.8947 33.5483 24.4524 23.6054 20.9478 10.4936 5.30978 5.30882 4.07586 2.74087 0.672285
threshold=1.0000000180025095e-35 1.0000000180025095e-35 1.5000000000000002 1.0000000180025095e-35 2.5000000000000004 1.0000000180025095e-35 1.0000000180025095e-35 1.0000000180025095e-35 1.0000000180025095e-35 1.0000000180025095e-35 1.0000000180025095e-35 1.0000000180025095e-35
decision_type=2 2 2 2 2 2 2 2 2 2 2 2
left_child=1 3 4 5 6 8 10 -2 -1 -4 -3 -9
right_child=7 2 9 -5 -6 -7 -8 11 -10 -11 -12 -13
leaf_value=0.39224718961163052 -1.3414727747540571 0.971622923777967 -0.3070411698332845 -1.7777375081895437 -0.15528060186376214 -1.0051030556563685 0.47559062082656045 -1.98394721915365 -0.28230839286123621 -1.2117524341634576 1.383415301628532 -2.3494857643218121
leaf_count=95 60 60 65 54 76 66 68 52 54 49 51 50
internal_value=0 0.212524 0.515727 -0.288613 0.721915 -0.0989311 0.944091 -1.84786 0.202115 -0.621428 1.17585 -2.16733
internal_count=800 638 369 269 255 215 179 162 149 114 111 102
shrinkage=1


Tree=2
num_leaves=12
num_cat=0
split_feature=76 54 3 88 115 101 197 18 110 245 115
split_gain=34.6918 20.3778 17.7483 27.4936 26.7384 10.169 8.96344 7.9052 15.2813 3.73645 1.51219
threshold=1.0000000180025095e-35 1.0000000180025095e-35 1.0000000180025095e-35 1.0000000180025095e-35 1.5000000000000002 1.0000000180025095e-35 1.5000000000000002 1.0000000180025095e-35 1.0000000180025095e-35 1.0000000180025095e-35 1.0000000180025095e-35
decision_type=2 2 2 2 2 2 2 2 2 2 2
left_child=1 2 3 4 5 10 -3 8 -6 -2 -1
right_child=9 6 -4 -5 7 -7 -8 -9 -10 -11 -12
leaf_value=-0.42682504164299612 -1.5832721495065902 -0.24450663627375641 0.76365968039028798 0.71000457289821117 0.2779837058227988 -1.9661095059060945 -1.3748780791073643 0.62909376064939782 -1.8272057105348305 -0.72723967662448985 -0.88433621543502638
leaf_count=55 79 78 94 73 53 51 63 72 55 49 78
internal_value=0 0.101879 0.241299 0.0345923 -0.311051 -0.934695 -0.647902 0.239307 -0.250771 -1.2427 -0.664726
internal_count=800 672 531 437 364 184 141 180 108 128 133
shrinkage=1


Tree=3
num_leaves=12
num_cat=0
split_feature=256 113 0 46 157 36 54 71 107 158 142
split_gain=20.3689 16.5122 13.683 15.4361 14.9864 13.0202 14.2612 7.23414 6.97126 1.65571 0.85886
threshold=1.0000000180025095e-35 1.0000000180025095e-35 1.0000000180025095e-35 1.0000000180025095e-35 1.0000000180025095e-35 1.0000000180025095e-35 1.0000000180025095e-35 1.0000000180025095e-35 1.0000000180025095e-35 1.0000000180025095e-35 1.0000000180025095e-35
decision_type=2 2 2 2 2 2 2 2 2 2 2
left_child=1 2 3 4 5 6 7 -1 -4 -2 -7
right_child=9 -3 8 -5 -6 10 -8 -9 -10 -11 -12
leaf_value=0.83112661953125855 -1.3260788921239608 -0.93256427917957141 0.21300275817278794 -1.3447944794666586 -1.4109529730753132 -0.48842329067074186 -0.6906369712444107 0.13325903796088995 1.0682648975669282 -0.73248458867661026 -1.0117620074158789
leaf_count=112 68 82 63 54 51 54 58 96 59 54 49
internal_value=0 0.0812722 0.186207 -0.00592968 0.107146 0.212142 0.383045 0.563885 0.692528 -1.02053 -0.654203
internal_count=800 678 596 474 420 369 266 208 122 122 103
shrinkage=1


Tree=4
num_leaves=12
num_cat=0
split_feature=28 157 30 18 136 159 87 0 142 107 87
split_gain=15.4827 14.4244 10.9928 16.8264 9.20914 7.61222 7.21537 4.76424 6.0206 4.16412 0.54703
threshold=1.0000000180025095e-35 1.5000000000000002 1.0000000180025095e-35 1.0000000180025095e-35 1.0000000180025095e-35 1.0000000180025095e-35 1.0000000180025095e-35 1.0000000180025095e-35 1.0000000180025095e-35 1.0000000180025095e-35 1.0000000180025095e-35
decision_type=2 2 2 2 2 2 2 2 2 2 2
left_child=1 2 4 -4 5 7 -7 8 9 -1 -10
right_child=-2 -3 3 -5 -6 6 -8 -9 10 -11 -12
leaf_value=-0.10738999547565757 0.8767533849446586 -1.992629807405335 -2.3150623249052567 -0.16502599102775461 -0.97830660006761705 0.87507435688735746 0.028463966160301984 -0.60794630159335383 -0.31936921250125622 0.53113935715557437 -0.75083676063905591
leaf_count=97 53 55 55 71 84 49 65 70 53 96 52
internal_value=0 -0.104008 -0.0480413 -0.777706 0.0656276 0.142555 0.484118 -0.0661115 0.0665095 0.246952 -0.559922
internal_count=800 747 692 126 566 482 114 368 298 193 105
shrinkage=1


Tree=5
num_leaves=12
num_cat=0
split_feature=94 83 107 136 113 48 3 155 115 22 87
split_gain=11.1205 8.24182 8.79219 6.97653 6.51055 5.01988 5.6283 7.01328 7.66878 6.30981 2.72137
threshold=1.0000000180025095e-35 1.0000000180025095e-35 1.0000000180025095e-35 1.0000000180025095e-35 1.0000000180025095e-35 1.0000000180025095e-35 1.0000000180025095e-35 1.0000000180025095e-35 1.5000000000000002 1.0000000180025095e-35 1.0000000180025095e-35
decision_type=2 2 2 2 2 2 2 2 2 2 2
left_child=1 3 -3 4 5 6 7 8 9 -1 -9
right_child=-2 2 -4 -5 -6 -7 -8 10 -10 -11 -12
leaf_value=-0.18932771568111065 -1.6799652817547939 -0.4089803876593614 0.70118580600104685 -1.5602214881808976 -0.83334535086260331 0.56721281954909508 0.43015894075099542 -0.51498978342148072 0.43347976057604576 -1.484351466271753 -1.6100933090073193
leaf_count=100 56 67 99 80 60 51 53 51 75 54 54
internal_value=0 0.0507096 0.436362 -0.107791 -0.057525 0.0333323 -0.0803909 -0.242126 -0.0722063 -0.427611 -1.03949
internal_count=800 744 166 578 498 438 387 334 229 154 105
shrinkage=1


Tree=6
num_leaves=12
num_cat=0
split_feature=92 88 47 255 159 221 40 179 40 242 40
split_gain=10.5138 8.09281 6.46815 10.6204 10.3081 5.04197 3.26624 5.95777 5.3855 3.10853 1.94314
threshold=1.0000000180025095e-35 1.0000000180025095e-35 1.0000000180025095e-35 1.5000000000000002 1.0000000180025095e-35 1.0000000180025095e-35 1.5000000000000002 1.0000000180025095e-35 1.0000000180025095e-35 1.0000000180025095e-35 2.5000000000000004
decision_type=2 2 2 2 2 2 2 2 2 2 2
left_child=1 2 3 4 6 -4 7 8 -1 -3 -8
right_child=-2 9 5 -5 -6 -7 10 -9 -10 -11 -12
leaf_value=-1.4037316897717562 -1.280417284200029 0.68161354317611078 0.7597403422423219 -1.4680559147225252 0.34208249150454678 -0.3024366247095075 -1.5206314220407133 0.28764458833862994 -0.024530124006830273 0.10766940439165108 -0.4238962265411218
leaf_count=66 69 49 58 78 91 68 68 55 60 77 61
internal_value=0 0.0479695 -0.140106 -0.30847 -0.148256 0.363567 -0.566809 -0.358427 -0.821341 0.424031 -1.14527
internal_count=800 731 605 479 401 126 310 181 126 126 129
shrinkage=1


Tree=7
num_leaves=12
num_cat=0
split_feature=221 71 13 19 131 110 115 15 22 8 38
split_gain=8.15434 15.3745 11.5058 5.51416 4.96295 4.29875 3.31461 6.1037 3.86755 2.12262 1.25768
threshold=1.0000000180025095e-35 1.0000000180025095e-35 1.0000000180025095e-35 1.0000000180025095e-35 1.0000000180025095e-35 1.0000000180025095e-35 1.0000000180025095e-35 1.0000000180025095e-35 1.0000000180025095e-35 1.0000000180025095e-35 1.0000000180025095e-35
decision_type=2 2 2 2 2 2 2 2 2 2 2
left_child=2 5 3 6 10 -2 -1 -8 -9 -10 -3
right_child=1 4 -4 -5 -6 -7 7 8 9 -11 -12
leaf_value=-0.40417216433575237 -0.19520734566252662 1.177213653036304 -1.7614188129112109 -0.69961702276241933 -0.099146753912639884 -1.487015193069648 0.82656567970348971 -0.65677319158245451 -0.11446732459721123 0.59052091805961648 0.72002232473697503
leaf_count=80 71 49 74 76 80 65 74 54 75 50 52
internal_value=0 0.348941 -0.217396 -0.102492 0.71952 -0.643187 0.0504981 0.20222 -0.0691339 0.192944 0.918641
internal_count=800 317 483 409 181 136 333 253 179 125 101
shrinkage=1


Tree=8
num_leaves=12
num_cat=0
split_feature=178 260 183 109 179 142 105 18 117 40 38
split_gain=5.80678 5.09036 4.22235 2.43468 3.17321 2.36553 3.26498 1.96043 1.45773 1.31873 5.60409
threshold=1.0000000180025095e-35 1.0000000180025095e-35 1.0000000180025095e-35 1.0000000180025095e-35 1.0000000180025095e-35 1.0000000180025095e-35 1.0000000180025095e-35 1.0000000180025095e-35 1.0000000180025095e-35 1.0000000180025095e-35 1.0000000180025095e-35
decision_type=2 2 2 2 2 2 2 2 2 2 2
left_child=1 2 3 4 5 7 -7 9 -6 -1 -11
right_child=-2 -3 -4 -5 8 6 -8 -9 -10 10 -12
leaf_value=0.46347643444616499 -1.1342207765290013 -0.85669473470101576 -0.85681417120469605 0.63277544055432733 -0.41998889869637307 -0.71847914959951353 0.36780492240451551 0.66348491626277217 0.10367986663770994 -0.69133781507926451 0.47832176310912117
leaf_count=59 61 79 63 73 92 82 55 61 60 53 62
internal_value=0 0.0937142 0.148646 0.194206 0.131249 0.258016 -0.155245 0.361237 -0.193379 0.215059 0.0375594
internal_count=800 739 660 597 524 372 137 235 152 174 115
shrinkage=1


Tree=9
num_leaves=13
num_cat=0
split_feature=0 38 9 69 47 38 167 155 87 179 87 22
split_gain=5.36278 4.06773 3.69085 3.6518 3.68445 3.00725 3.96103 2.50577 2.30112 1.97023 3.32436 1.38899
threshold=1.5000000000000002 1.5000000000000002 2.5000000000000004 1.0000000180025095e-35 1.0000000180025095e-35 1.0000000180025095e-35 1.0000000180025095e-35 1.0000000180025095e-35 1.0000000180025095e-35 1.0000000180025095e-35 1.0000000180025095e-35 1.0000000180025095e-35
decision_type=2 2 2 2 2 2 2 2 2 2 2 2
left_child=1 2 3 4 5 6 9 -6 -7 10 11 -1
right_child=-2 -3 -4 -5 7 8 -8 -9 -10 -11 -12 -13
leaf_value=-0.42887791155766031 0.80919968351511229 -0.74177604813878195 -1.1047815867079747 -0.72060867870388368 -0.049840140998109551 -0.0077038837252215702 -1.7616699314319475 -0.95073551383662191 0.73747463687950365 0.57114854313945052 0.61553376212863398 0.14711616642400777
leaf_count=77 55 87 67 49 52 57 49 70 85 49 54 49
internal_value=0 -0.0397541 0.027717 0.0693136 0.130486 0.251023 0.0635531 -0.305309 0.54298 0.128413 -0.0093152 -0.225196
internal_count=800 745 658 591 542 420 278 122 142 229 180 126
shrinkage=1


Tree=10
num_leaves=12
num_cat=0
split_feature=77 104 160 76 14 52 110 26 131 107 115
split_gain=5.02648 5.71496 5.25001 4.73621 3.73726 4.22215 2.9821 2.54841 3.6321 1.63718 0.950839
threshold=1.0000000180025095e-35 1.0000000180025095e-35 1.0000000180025095e-35 1.0000000180025095e-35 1.0000000180025095e-35 1.0000000180025095e-35 1.0000000180025095e-35 1.0000000180025095e-35 1.5000000000000002 1.0000000180025095e-35 1.5000000000000002
decision_type=2 2 2 2 2 2 2 2 2 2 2
left_child=1 3 10 4 5 7 -3 8 9 -1 -2
right_child=2 6 -4 -5 -6 -7 -8 -9 -10 -11 -12
leaf_value=0.031358465698835547 0.81247837901363629 -1.2375760246350025 -0.38961033805422418 -2.004154772044036 -0.5171808264331208 -0.70853011346893202 -0.17472733090625847 0.80837509039057676 -1.2407658120537475 0.61538449043415711 0.39666880491548451
leaf_count=83 65 58 81 50 66 92 49 54 63 54 85
internal_value=0 -0.153122 0.360906 0.00694392 0.0602554 0.210651 -0.801292 0.345189 0.160454 0.2822 0.601629
internal_count=800 569 231 462 412 346 107 254 200 137 150
shrinkage=1


Tree=11
num_leaves=12
num_cat=0
split_feature=114 99 157 206 18 36 18 87 115 221 115
split_gain=4.01594 4.09188 6.25758 3.4678 4.95058 3.54737 4.68092 2.32549 2.19596 0.932889 0.184452
threshold=1.0000000180025095e-35 1.5000000000000002 1.0000000180025095e-35 1.0000000180025095e-35 1.5000000000000002 1.0000000180025095e-35 1.0000000180025095e-35 1.0000000180025095e-35 1.5000000000000002 1.0000000180025095e-35 1.0000000180025095e-35
decision_type=2 2 2 2 2 2 2 2 2 2 2
left_child=1 2 3 4 5 6 8 -5 10 -7 -1
right_child=-2 -3 -4 7 -6 9 -8 -9 -10 -11 -12
leaf_value=0.31788637159629735 0.81867762933593269 0.7871125369822034 -1.3492450129620055 0.79414137738660795 0.53142582181159226 -0.65432068455513237 -0.87218097625581281 -0.032929874925967592 -0.43525245106478927 -1.4730077535188464 0.11528964271026949
leaf_count=56 58 53 97 51 55 61 83 49 91 56 90
internal_value=0 -0.0311566 -0.102299 -0.024698 -0.153372 -0.306635 -0.18181 0.417986 0.0238881 -1.04396 0.212218
internal_count=800 742 689 592 492 437 320 100 237 117 146
shrinkage=1


Tree=12
num_leaves=12
num_cat=0
split_feature=86 187 172 76 197 48 40 197 105 52 115
split_gain=3.15237 2.06698 1.83724 2.66275 1.78094 1.63822 1.38439 3.34925 1.86431 1.30704 0.697377
threshold=1.0000000180025095e-35 1.0000000180025095e-35 1.0000000180025095e-35 1.0000000180025095e-35 2.5000000000000004 1.0000000180025095e-35 1.5000000000000002 1.0000000180025095e-35 1.0000000180025095e-35 1.0000000180025095e-35 1.0000000180025095e-35
decision_type=2 2 2 2 2 2 2 2 2 2 2
left_child=1 2 3 4 5 6 7 10 -8 -6 -1
right_child=-2 -3 -4 -5 9 -7 8 -9 -10 -11 -12
leaf_value=-0.078988601867681044 -0.77660561642673731 -0.50527085901775259 0.86192507107648841 -1.6974929242561017 -0.97111131564149544 0.54505265084259602 0.51130950098494254 -0.87768085707724963 -0.16433028092221832 0.18630593549815377 0.30273318839711783
leaf_count=71 58 78 50 78 49 50 99 56 77 50 84
internal_value=0 0.0870343 0.140426 0.0979547 0.124146 0.174297 0.0888842 -0.0730364 0.292229 -0.512154 0.10479
internal_count=800 742 664 614 536 437 387 211 176 99 155
shrinkage=1


Tree=13
num_leaves=13
num_cat=0
split_feature=92 249 184 221 115 110 24 71 105 24 71 115
split_gain=2.53552 1.7451 1.72068 1.60213 1.5017 1.26634 1.62387 1.93892 1.48095 1.22693 0.617631 0.0667034
threshold=1.0000000180025095e-35 1.5000000000000002 1.0000000180025095e-35 1.5000000000000002 2.5000000000000004 1.0000000180025095e-35 1.0000000180025095e-35 1.0000000180025095e-35 1.0000000180025095e-35 1.0000000180025095e-35 1.0000000180025095e-35 1.0000000180025095e-35
decision_type=2 2 2 2 2 2 2 2 2 2 2 2
left_child=1 2 3 4 5 6 7 11 10 -6 -7 -1
right_child=-2 -3 -4 -5 9 8 -8 -9 -10 -11 -12 -13
leaf_value=-0.049842051186068555 -1.012865108826138 0.39957925697819924 0.67422883150876178 -0.69660756823544934 0.7321865615529094 -0.45583890830688117 0.39475124112022786 -0.77446130445396311 0.13836111864350695 -0.0080554308279125689 -1.0998148198550068 0.089046509938211504
leaf_count=59 69 71 49 58 61 50 88 72 59 57 49 58
internal_value=0 0.0613481 -0.0202909 -0.0689548 -0.0153033 -0.109173 0.00731462 -0.157816 -0.420986 0.349689 -0.700211 0.0188634
internal_count=800 731 660 611 553 435 277 189 158 118 99 117
shrinkage=1


Tree=14
num_leaves=12
num_cat=0
split_feature=196 226 18 15 37 24 88 9 38 131 221
split_gain=1.61002 1.58369 0.969905 2.44727 1.46029 1.48821 1.38515 3.47023 1.19948 0.812126 0.318055
threshold=1.0000000180025095e-35 1.0000000180025095e-35 1.0000000180025095e-35 1.0000000180025095e-35 1.0000000180025095e-35 1.0000000180025095e-35 1.0000000180025095e-35 1.0000000180025095e-35 1.0000000180025095e-35 1.5000000000000002 1.0000000180025095e-35
decision_type=2 2 2 2 2 2 2 2 2 2 2
left_child=1 2 6 -4 -5 -6 7 8 10 -10 -1
right_child=-2 -3 3 4 5 -7 -8 -9 9 -11 -12
leaf_value=0.30943202781377616 -0.62041344745959492 -0.46981071444272382 -0.26920315504665349 0.800316863942516 0.58162745579057051 -0.23948106331559232 0.24110872706727737 -1.2965959557304489 -0.19738131620154645 -1.2433758138060813 -0.28322970222293586
leaf_count=81 84 87 76 52 67 52 63 76 56 56 50
internal_value=0 0.0596328 0.111712 0.269072 0.47209 0.198496 -0.00615565 -0.193522 -0.00856602 -0.344226 0.236753
internal_count=800 716 629 247 171 119 382 319 243 112 131
shrinkage=1


Tree=15
num_leaves=11
num_cat=0
split_feature=83 0 73 87 8 160 87 24 179 37
split_gain=2.06515 3.18908 6.82733 2.41626 1.60411 1.67629 1.06084 0.760999 0.733172 0.518111
threshold=1.0000000180025095e-35 1.0000000180025095e-35 1.0000000180025095e-35 1.5000000000000002 1.0000000180025095e-35 1.0000000180025095e-35 1.0000000180025095e-35 1.0000000180025095e-35 1.0000000180025095e-35 1.0000000180025095e-35
decision_type=2 2 2 2 2 2 2 2 2 2
left_child=1 2 3 4 5 7 -2 -1 -3 -6
right_child=6 8 -4 -5 9 -7 -8 -9 -10 -11
leaf_value=0.12908374281458704 0.51916552833072815 0.55330809820247073 -1.5211039958526138 0.50670646120048424 -1.1082899715863066 -1.1887832894853103 0.030591589436782838 -0.44274453467751435 0.046334232257341748 -0.26006151330068145
leaf_count=92 96 81 92 72 59 51 85 55 62 55
internal_value=0 -0.115907 -0.305348 -0.0953793 -0.271344 -0.119595 0.29557 -0.00825329 0.324075 -0.870302
internal_count=800 619 476 384 312 198 181 147 143 114
shrinkage=1


Tree=16
num_leaves=12
num_cat=0
split_feature=104 158 81 221 26 229 139 8 0 40 87
split_gain=1.36786 3.57128 1.8816 1.63943 1.05232 2.08878 0.979597 0.894073 0.834877 0.569449 0.514648
threshold=1.0000000180025095e-35 1.0000000180025095e-35 1.0000000180025095e-35 1.0000000180025095e-35 1.0000000180025095e-35 1.0000000180025095e-35 1.0000000180025095e-35 1.0000000180025095e-35 1.0000000180025095e-35 1.5000000000000002 1.0000000180025095e-35
decision_type=2 2 2 2 2 2 2 2 2 2 2
left_child=2 -2 3 4 5 8 7 -5 9 -1 -3
right_child=1 10 -4 6 -6 -7 -8 -9 -10 -11 -12
leaf_value=0.0053500623178595556 -1.1320281471734692 0.29955813022389866 -1.2701024114466646 0.70127987688395077 0.38850867601389144 0.39251354388730192 -0.96621490672051913 -0.00025038799374707343 -0.66124770312700398 -0.4664021833841312 -0.18490146618398329
leaf_count=95 61 49 77 98 64 63 56 65 53 67 52
internal_value=0 -0.279236 0.102315 0.136606 0.0115276 -0.0866712 0.472622 0.536963 -0.27996 -0.143703 0.0617288
internal_count=800 162 638 561 342 278 219 163 215 162 101
shrinkage=1


Tree=17
num_leaves=12
num_cat=0
split_feature=107 118 242 26 159 40 110 206 110 40 115
split_gain=1.55576 2.35992 2.88757 1.47028 1.31211 1.2394 1.19622 0.711926 0.783274 0.489574 0.485424
threshold=1.0000000180025095e-35 1.0000000180025095e-35 1.0000000180025095e-35 1.0000000180025095e-35 1.0000000180025095e-35 1.5000000000000002 1.0000000180025095e-35 1.0000000180025095e-35 1.0000000180025095e-35 2.5000000000000004 1.0000000180025095e-35
decision_type=2 2 2 2 2 2 2 2 2 2 2
left_child=1 2 3 10 5 -2 -6 8 -7 -10 -1
right_child=4 -3 -4 -5 6 7 -8 -9 9 -11 -12
leaf_value=-0.64709764694746896 0.37454552638903155 0.61595868918640861 -1.5394483872912113 0.33077452801664431 0.73233772949958553 -0.88027272576034366 0.076636596162648674 0.10565008923590938 0.046189682598120563 -0.65275801997222382 -0.21897766847951086
leaf_count=74 56 61 79 50 60 95 55 56 61 54 99
internal_value=0 -0.203064 -0.349413 -0.204148 0.162292 -0.00975367 0.429291 -0.195416 -0.397313 -0.165981 -0.388783
internal_count=800 363 302 223 437 322 115 266 210 115 173
shrinkage=1


Tree=18
num_leaves=12
num_cat=0
split_feature=249 22 88 160 115 38 36 101 36 24 115
split_gain=1.72679 2.34543 1.74081 1.15672 1.28774 0.926296 1.0114 0.941163 0.809741 0.305146 0.0272899
threshold=1.0000000180025095e-35 1.5000000000000002 1.0000000180025095e-35 1.0000000180025095e-35 1.5000000000000002 1.0000000180025095e-35 1.0000000180025095e-35 1.0000000180025095e-35 1.0000000180025095e-35 1.0000000180025095e-35 1.0000000180025095e-35
decision_type=2 2 2 2 2 2 2 2 2 2 2
left_child=1 2 5 4 -2 6 7 10 9 -7 -1
right_child=3 -3 -4 -5 -6 8 -8 -9 -10 -11 -12
leaf_value=-0.023765956483662014 -0.81534945427498162 -0.69413988110552394 0.55731148517820883 0.18149014321377258 -0.13026213500115208 -0.36181369482625853 -0.6283421767598566 0.74684001453100524 0.22999527773526385 -0.99476050812738892 0.12327659050357294
leaf_count=49 82 96 86 60 57 71 66 50 59 66 58
internal_value=0 0.157194 0.253824 -0.257542 -0.427574 0.0298005 0.203461 0.32559 -0.332295 -0.63389 0.0682312
internal_count=800 601 505 199 139 419 223 157 196 137 107
shrinkage=1


Tree=19
num_leaves=12
num_cat=0
split_feature=242 8 92 64 88 47 131 115 158 255 221
split_gain=0.772759 2.53708 1.03677 0.696187 0.852196 1.33131 1.20245 0.622832 0.732302 0.227465 0.19291
threshold=1.5000000000000002 1.0000000180025095e-35 1.0000000180025095e-35 1.0000000180025095e-35 1.0000000180025095e-35 1.0000000180025095e-35 1.5000000000000002 1.0000000180025095e-35 1.0000000180025095e-35 1.0000000180025095e-35 1.0000000180025095e-35
decision_type=2 2 2 2 2 2 2 2 2 2 2
left_child=2 -2 3 4 5 6 7 -1 9 -9 -7
right_child=1 -3 -4 -5 -6 10 -8 8 -10 -11 -12
leaf_value=0.34522110550436241 -0.88459987607034485 0.48230876395802869 -0.98381561578838195 -0.54063643230716474 0.3624198718659607 0.58268313356010726 -1.1300818363792875 -0.13983034671332562 -0.50593349224588013 0.19046856222723615 0.074748350465221797
leaf_count=68 75 52 56 69 86 54 63 73 88 55 61
internal_value=0 -0.321891 0.0780395 0.105975 0.137591 0.0208449 -0.113482 -0.0421021 -0.145957 0.0206567 0.484619
internal_count=800 127 673 617 548 462 347 284 216 128 115
shrinkage=1


Tree=20
num_leaves=12
num_cat=0
split_feature=114 107 36 212 38 87 70 131 87 40 115
split_gain=1.17074 0.851483 1.06003 1.0282 0.832599 0.814172 0.632286 0.98079 0.574145 0.311549 0.14188
threshold=1.0000000180025095e-35 1.0000000180025095e-35 1.0000000180025095e-35 1.0000000180025095e-35 1.0000000180025095e-35 1.0000000180025095e-35 1.0000000180025095e-35 1.0000000180025095e-35 1.0000000180025095e-35 1.0000000180025095e-35 1.0000000180025095e-35
decision_type=2 2 2 2 2 2 2 2 2 2 2
left_child=1 2 5 4 8 9 7 -6 -3 10 -1
right_child=-2 3 -4 -5 6 -7 -8 -9 -10 -11 -12
leaf_value=-0.28895836136879621 0.68531105254289004 0.13053336077296479 -1.0664530670220307 -0.40711072417151067 0.6292562774890218 0.53770726285906467 -0.14176811749080839 -0.36697053588097167 -0.47706385009231411 -0.58007246970415982 -0.031240148881014441
leaf_count=57 58 68 80 84 79 71 68 70 51 63 51
internal_value=0 -0.0379322 -0.231919 0.090305 0.190617 -0.138674 0.371444 0.491673 -0.0778888 -0.236912 -0.152056
internal_count=800 742 322 420 336 242 217 149 119 171 108
shrinkage=1


Tree=21
num_leaves=13
num_cat=0
split_feature=104 3 115 19 37 206 109 118 231 249 37 40
split_gain=1.47596 1.05046 1.03881 0.666436 1.23468 0.775597 0.527028 1.04454 0.312688 0.732445 0.387613 0.0209597
threshold=1.0000000180025095e-35 1.0000000180025095e-35 1.5000000000000002 1.0000000180025095e-35 1.0000000180025095e-35 1.0000000180025095e-35 1.0000000180025095e-35 1.0000000180025095e-35 1.0000000180025095e-35 1.0000000180025095e-35 1.0000000180025095e-35 1.0000000180025095e-35
decision_type=2 2 2 2 2 2 2 2 2 2 2 2
left_child=3 2 -2 5 -5 6 7 8 9 10 11 -1
right_child=1 -3 -4 4 -6 -7 -8 -9 -10 -11 -12 -13
leaf_value=0.3569893724119948 -1.4450629135539004 0.023888121767802355 -0.36219814982016763 0.065765714531283201 -1.1775319858421085 0.67526596805860517 0.59851668321154539 -0.82736509418950821 0.52532015988158653 -0.27101424552587633 -0.15416894798106417 0.48597416473590815
leaf_count=50 51 58 53 67 51 81 60 52 62 49 72 94
internal_value=0 -0.33941 -0.690006 0.14907 -0.167602 0.234121 0.143985 0.0723938 0.155361 0.0893871 0.276314 0.402087
internal_count=800 162 104 638 118 520 439 379 327 265 216 144
shrinkage=1


Tree=22
num_leaves=12
num_cat=0
split_feature=76 69 93 73 22 159 9 221 255 47 87
split_gain=0.796611 0.900487 0.711326 0.604387 0.847815 0.748863 0.394173 0.320533 0.302055 0.198865 0.508947
threshold=1.0000000180025095e-35 1.0000000180025095e-35 1.0000000180025095e-35 1.0000000180025095e-35 1.0000000180025095e-35 1.0000000180025095e-35 1.0000000180025095e-35 1.0000000180025095e-35 1.0000000180025095e-35 1.0000000180025095e-35 1.0000000180025095e-35
decision_type=2 2 2 2 2 2 2 2 2 2 2
left_child=1 2 3 4 6 9 7 -1 -2 10 -6
right_child=8 -3 -4 -5 5 -7 -8 -9 -10 -11 -12
leaf_value=-0.1315349547953554 -0.80965238050343313 -0.66207643232711166 -0.63756774089205304 0.45044641404593988 -1.0806045943544684 0.66813323712504979 -0.45483465676184803 0.31090483338480612 -0.1121951886800719 0.54150509574467154 0.087264759614291448
leaf_count=94 70 59 87 93 51 55 64 61 58 56 52
internal_value=0 0.0451429 0.0907619 0.12801 0.0528651 0.288201 -0.12522 -0.0213719 -0.533856 0.0620103 -0.0139186
internal_count=800 672 613 526 433 214 219 155 128 159 103
shrinkage=1


Tree=23
num_leaves=13
num_cat=0
split_feature=256 165 113 71 0 245 30 139 249 8 40 40
split_gain=0.620385 1.03077 1.14378 0.369549 0.337492 0.539846 0.511689 0.491203 0.278538 0.34339 0.208762 0.181965
threshold=1.0000000180025095e-35 1.0000000180025095e-35 1.0000000180025095e-35 1.0000000180025095e-35 1.0000000180025095e-35 1.0000000180025095e-35 1.0000000180025095e-35 1.0000000180025095e-35 1.0000000180025095e-35 1.0000000180025095e-35 1.5000000000000002 1.5000000000000002
decision_type=2 2 2 2 2 2 2 2 2 2 2 2
left_child=1 2 4 -2 5 6 7 8 9 10 -1 -6
right_child=3 -3 -4 -5 11 -7 -8 -9 -10 -11 -12 -13
leaf_value=0.43561919328961463 -0.96166676086868896 0.69663764303811382 -1.1540347455187345 -0.10585196814264 0.41264624614239115 -1.0908403450980173 -0.61849823761140688 -0.52470184550733678 -0.05839316434759978 -0.21375716682414489 0.024328397421670426 0.056226317059754005
leaf_count=69 53 59 67 69 57 58 53 83 50 72 60 50
internal_value=0 0.0513347 -0.0100591 -0.524057 0.0320255 -0.0381324 -0.00827385 0.0419339 0.0981097 0.224877 0.325804 0.241955
internal_count=800 678 619 122 552 445 387 334 251 201 129 107
shrinkage=1


Tree=24
num_leaves=11
num_cat=0
split_feature=83 71 71 115 54 246 115 71 139 87
split_gain=0.594885 1.04872 0.746761 0.777867 0.644153 0.456329 0.357238 0.173389 0.149913 0.0657339
threshold=1.0000000180025095e-35 1.0000000180025095e-35 1.0000000180025095e-35 1.0000000180025095e-35 1.0000000180025095e-35 1.0000000180025095e-35 1.5000000000000002 1.5000000000000002 1.0000000180025095e-35 1.0000000180025095e-35
decision_type=2 2 2 2 2 2 2 2 2 2
left_child=2 -2 3 -1 6 8 -4 -8 -5 -3
right_child=1 9 4 5 -6 -7 7 -9 -10 -11
leaf_value=-0.70567250020558192 0.68821307243770469 -0.18782086663163555 0.0056212982688901621 0.041334655103747987 -0.46073090988694554 -1.1131329110207651 0.66984814080520083 0.0017445811080747859 -0.3073199733896686 0.033845669903903051
leaf_count=95 80 51 97 92 91 52 71 62 59 50
internal_value=0 0.195738 -0.120603 -0.285487 0.155448 -0.105254 0.325846 0.55797 -0.0422673 -0.0326909
internal_count=800 181 619 298 321 203 230 133 151 101
shrinkage=1


Tree=25
num_leaves=11
num_cat=0
split_feature=101 115 46 9 13 246 19 211 221 22
split_gain=0.355739 0.43102 0.640234 0.410606 0.33556 0.237311 0.276793 0.289831 0.190822 0.0554605
threshold=1.5000000000000002 1.0000000180025095e-35 1.0000000180025095e-35 1.0000000180025095e-35 1.0000000180025095e-35 1.0000000180025095e-35 1.0000000180025095e-35 1.0000000180025095e-35 1.0000000180025095e-35 1.0000000180025095e-35
decision_type=2 2 2 2 2 2 2 2 2 2
left_child=1 3 4 -1 5 6 7 8 9 -3
right_child=-2 2 -4 -5 -6 -7 -8 -9 -10 -11
leaf_value=0.049284341092254852 0.40909376681676729 0.11818084263220469 -0.72375072883673042 0.67921149951171289 -0.71891427499048866 -1.0385704676807819 -0.16051612316159691 -0.81959347117480197 0.35594238578604714 -0.090139659345895407
leaf_count=83 93 69 95 60 51 59 67 62 101 60
internal_value=0 -0.0222797 -0.0970821 0.238567 -0.03757 -0.00615711 0.00918002 0.11963 0.154127 0.0445456
internal_count=800 707 564 143 469 418 359 292 230 129
shrinkage=1


Tree=26
num_leaves=12
num_cat=0
split_feature=28 107 248 249 249 18 139 221 115 139 87
split_gain=0.557021 0.762429 0.381822 0.292624 0.274827 0.651913 0.33474 0.212833 0.293599 0.210663 0.0763425
threshold=1.0000000180025095e-35 1.0000000180025095e-35 1.0000000180025095e-35 1.0000000180025095e-35 1.0000000180025095e-35 1.0000000180025095e-35 1.0000000180025095e-35 1.0000000180025095e-35 1.0000000180025095e-35 1.0000000180025095e-35 1.0000000180025095e-35
decision_type=2 2 2 2 2 2 2 2 2 2 2
left_child=1 2 3 7 5 6 10 8 -1 -7 -3
right_child=-2 4 -4 -5 -6 9 -8 -9 -10 -11 -12
leaf_value=-0.25355759228152552 0.55287786921285886 -0.39524170359983357 -1.1131104237936558 -0.46964434570164687 0.24550982375442351 0.53674755892321924 0.32167519176363307 -0.55892656839540511 0.2917209652619695 0.039834794785305626 -0.78367256401499996
leaf_count=65 53 60 56 85 93 56 70 55 79 64 64
internal_value=0 -0.0426635 -0.281327 -0.225424 0.107717 -0.0453294 -0.436203 -0.0696968 0.0228975 0.224798 -0.611251
internal_count=800 747 340 284 407 314 194 199 144 120 124
shrinkage=1


Tree=27
num_leaves=12
num_cat=0
split_feature=166 3 14 101 46 104 9 40 71 197 40
split_gain=0.268827 0.257756 0.308799 0.364197 0.306256 0.238527 0.293345 0.23151 0.160414 0.393165 0.0301108
threshold=1.0000000180025095e-35 1.5000000000000002 1.0000000180025095e-35 1.0000000180025095e-35 1.0000000180025095e-35 1.0000000180025095e-35 1.5000000000000002 2.5000000000000004 1.0000000180025095e-35 1.0000000180025095e-35 1.0000000180025095e-35
decision_type=2 2 2 2 2 2 2 2 2 2 2
left_child=1 2 4 -4 5 6 7 8 10 -10 -1
right_child=-2 -3 3 -5 -6 -7 -8 -9 9 -11 -12
leaf_value=0.23654142474197146 0.66103224609688771 0.25970305180894898 -0.1125348618993208 -0.78200118642089744 -0.62426203068285957 -0.38320902380526545 0.63898360510526486 -0.46924004514177786 -0.58634591812790449 0.11381901702611857 0.086984052657233538
leaf_count=71 66 55 51 53 73 72 49 78 66 87 79
internal_value=0 -0.0190588 -0.0641834 -0.314096 0.00587923 0.0411628 0.0842531 0.0395967 0.0811117 -0.0703573 0.18563
internal_count=800 734 679 104 575 502 430 381 303 153 150
shrinkage=1


Tree=28
num_leaves=12
num_cat=0
split_feature=61 88 71 131 9 136 30 255 24 131 197
split_gain=0.275979 0.252709 0.383376 0.312101 0.295789 0.348432 0.270305 0.234276 0.127988 0.106491 0.069519
threshold=1.0000000180025095e-35 1.0000000180025095e-35 1.0000000180025095e-35 1.5000000000000002 1.0000000180025095e-35 1.0000000180025095e-35 1.0000000180025095e-35 1.0000000180025095e-35 1.0000000180025095e-35 2.5000000000000004 1.0000000180025095e-35
decision_type=2 2 2 2 2 2 2 2 2 2 2
left_child=1 3 -3 4 5 8 7 -6 10 -5 -1
right_child=-2 2 -4 9 6 -7 -8 -9 -10 -11 -12
leaf_value=0.24408543117153614 -0.44907904935685367 0.042003741358476183 0.60026525742679393 -0.85225371957997031 -1.0878527394577504 -0.31906407118043412 0.018807443467655734 -0.24449318952921709 0.46827328983858763 -0.1626791974383226 0.018918528905783279
leaf_count=66 84 67 57 102 61 62 54 79 58 49 61
internal_value=0 0.0313854 0.197028 -0.0517337 -0.0050098 0.0863555 -0.292544 -0.612313 0.186942 -0.598272 0.120487
internal_count=800 716 124 592 441 247 194 140 185 151 127
shrinkage=1


Tree=29
num_leaves=11
num_cat=0
split_feature=19 81 159 83 221 131 87 115 115 71
split_gain=0.231573 0.318271 0.194817 0.200717 0.297611 0.317124 0.226747 0.410839 0.18329 0.172068
threshold=1.5000000000000002 1.0000000180025095e-35 1.5000000000000002 1.0000000180025095e-35 1.0000000180025095e-35 1.0000000180025095e-35 1.0000000180025095e-35 1.0000000180025095e-35 1.5000000000000002 1.0000000180025095e-35
decision_type=2 2 2 2 2 2 2 2 2 2
left_child=1 2 3 4 5 6 7 -1 -6 -5
right_child=-2 -3 -4 9 8 -7 -8 -9 -10 -11
leaf_value=-0.89110995155541228 0.48390492458573803 -1.0686671868100075 0.30652660371661361 0.38540013756644304 0.37813750813906133 0.40897421009117696 -0.075260857827285296 -0.19356084331989387 -0.11631905166849216 -0.0047194276477344884
leaf_count=52 60 93 70 53 93 75 72 66 97 69
internal_value=0 -0.0336936 -0.0160922 -0.0512435 -0.150072 -0.282907 -0.361975 -0.51399 0.103578 0.0798626
internal_count=800 740 647 577 455 265 190 118 190 122
shrinkage=1


Tree=30
num_leaves=12
num_cat=0
split_feature=110 113 24 8 52 19 26 159 18 255 52
split_gain=0.34719 0.210685 0.245208 0.40259 0.316125 0.198294 0.200749 0.620477 0.203894 0.182084 0.17866
threshold=1.0000000180025095e-35 1.0000000180025095e-35 1.0000000180025095e-35 1.0000000180025095e-35 1.0000000180025095e-35 1.0000000180025095e-35 1.0000000180025095e-35 1.0000000180025095e-35 1.0000000180025095e-35 1.0000000180025095e-35 1.0000000180025095e-35
decision_type=2 2 2 2 2 2 2 2 2 2 2
left_child=5 2 3 -2 -4 6 7 8 9 -1 -7
right_child=1 -3 4 -5 -6 10 -8 -9 -10 -11 -12
leaf_value=0.049642029168911472 0.37250227492581511 -0.72915362263414596 -0.61008157669428975 -0.53635737210762779 0.76534188260896463 -0.42597076349675711 0.48163040245633809 0.58316818324934894 -0.65735530934969899 -0.70825459635097909 0.024328774298718783
leaf_count=91 86 70 74 59 52 51 75 56 76 59 51
internal_value=0 -0.242289 -0.146694 0.0699333 -0.445846 0.0788481 0.1838 0.0950434 -0.122222 -0.0281119 -0.0649918
internal_count=800 341 271 145 126 459 357 282 226 150 102
shrinkage=1


Tree=31
num_leaves=12
num_cat=0
split_feature=114 64 231 52 15 14 131 142 249 197 40
split_gain=0.226919 0.414595 0.184823 0.447329 0.161413 0.274221 0.183853 0.161923 0.147211 0.131 0.0456767
threshold=1.0000000180025095e-35 1.0000000180025095e-35 1.0000000180025095e-35 1.0000000180025095e-35 1.0000000180025095e-35 1.0000000180025095e-35 1.5000000000000002 1.0000000180025095e-35 1.0000000180025095e-35 1.5000000000000002 1.0000000180025095e-35
decision_type=2 2 2 2 2 2 2 2 2 2 2
left_child=1 2 4 -4 8 6 7 -6 10 -8 -1
right_child=-2 -3 3 -5 5 -7 9 -9 -10 -11 -12
leaf_value=0.044320238016213896 0.60096546140260343 -0.80411674279580525 0.55989004966359857 -1.0803969157047715 0.22899136240179335 -0.16729965687083981 0.21689167152181413 -0.20320571707157586 -0.38899382390185294 0.99005842676796052 -0.24618401001739973
leaf_count=81 58 97 56 52 79 63 55 97 50 51 61
internal_value=0 -0.0230004 0.0110612 0.347273 -0.0257548 0.0551571 0.19675 0.114134 -0.173989 0.615072 -0.0299058
internal_count=800 742 645 108 537 345 282 176 192 106 142
shrinkage=1


Tree=32
num_leaves=11
num_cat=0
split_feature=249 57 165 159 38 71 107 155 18 115
split_gain=0.252469 0.220452 0.124678 0.207465 0.383395 0.146623 0.131989 0.13183 0.0438778 0.0348266
threshold=1.5000000000000002 1.0000000180025095e-35 1.0000000180025095e-35 1.0000000180025095e-35 1.0000000180025095e-35 1.0000000180025095e-35 1.0000000180025095e-35 1.0000000180025095e-35 1.0000000180025095e-35 1.0000000180025095e-35
decision_type=2 2 2 2 2 2 2 2 2 2
left_child=1 2 3 5 -5 6 9 8 -7 -1
right_child=-2 -3 -4 4 -6 7 -8 -9 -10 -11
leaf_value=-0.015869910962839132 0.21338783286821478 -0.59779384784301814 0.39576993314769005 -0.54188610230225931 0.20172429823526206 -0.25106940692085006 0.5774486237154115 -0.63541526289498929 0.031631632919930423 0.25131546787743603
leaf_count=57 80 79 54 66 69 95 83 96 58 63
internal_value=0 -0.068241 -0.0305566 -0.0589135 -0.276278 0.0397905 0.213083 -0.0874411 -0.0247038 0.0844193
internal_count=800 720 641 587 135 452 203 249 153 120
shrinkage=1


Tree=33
num_leaves=13
num_cat=0
split_feature=53 37 9 189 88 226 131 8 77 229 87 71
split_gain=0.144697 0.145039 0.219067 0.146582 0.129012 0.134043 0.113743 0.0844212 0.0648756 0.196168 0.0703806 0.0238996
threshold=1.0000000180025095e-35 1.5000000000000002 1.5000000000000002 1.0000000180025095e-35 1.0000000180025095e-35 1.0000000180025095e-35 1.5000000000000002 1.0000000180025095e-35 1.0000000180025095e-35 1.0000000180025095e-35 1.0000000180025095e-35 1.0000000180025095e-35
decision_type=2 2 2 2 2 2 2 2 2 2 2 2
left_child=1 3 -3 4 5 6 8 -8 9 10 -1 -6
right_child=-2 2 -4 -5 11 -7 7 -9 -10 -11 -12 -13
leaf_value=0.30279114417198444 0.91840822679051504 0.79297201969083686 0.015913042307160195 -1.015731276981972 0.064404803377502678 -0.57318734275817451 -0.18522803382146294 -1.040003846851719 -0.17763858485040246 -0.19825052317723998 -0.081329564343494337 0.24116372696153859
leaf_count=89 54 60 57 52 62 52 59 79 73 50 60 53
internal_value=0 -0.0110098 0.266753 -0.0478763 -0.0357643 -0.108988 -0.0736046 -0.54855 -0.0420227 0.0252575 0.209935 0.106903
internal_count=800 746 117 629 577 462 410 138 272 199 149 115
shrinkage=1


end of trees

feature importances:
115=23
87=18
40=17
71=14
131=11
221=11
18=10
9=9
107=9
38=8
88=8
159=8
197=8
249=8
8=7
24=7
110=7
0=6
22=6
3=5
19=5
36=5
37=5
52=5
139=5
255=5
26=4
47=4
76=4
83=4
101=4
104=4
113=4
142=4
158=4
160=4
179=4
14=3
15=3
30=3
46=3
54=3
92=3
105=3
114=3
136=3
155=3
157=3
206=3
242=3
246=3
13=2
28=2
48=2
64=2
69=2
73=2
77=2
81=2
109=2
117=2
118=2
165=2
226=2
229=2
231=2
245=2
256=2
53=1
57=1
61=1
70=1
86=1
93=1
94=1
99=1
124=1
166=1
167=1
172=1
178=1
183=1
184=1
187=1
189=1
196=1
211=1
212=1
248=1
260=1

parameters:
[boosting: gbdt]
[objective: binary]
[metric: auc]
[tree_learner: serial]
[device_type: cpu]
[data: ]
[valid: ]
[num_iterations: 100]
[learning_rate: 1]
[num_leaves: 80]
[num_threads: 0]
[max_depth: 30]
[min_data_in_leaf: 49]
[min_sum_hessian_in_leaf: 0]
[bagging_fraction: 0.83122]
[bagging_freq: 0]
[bagging_seed: 3]
[feature_fraction: 0.87559]
[feature_fraction_seed: 2]
[early_stopping_round: 0]
[max_delta_step: 0]
[lambda_l1: 0]
[lambda_l2: 0]
[min_gain_to_split: 0]
[drop_rate: 0.1]
[max_drop: 50]
[skip_drop: 0.5]
[xgboost_dart_mode: 0]
[uniform_drop: 0]
[drop_seed: 4]
[top_rate: 0.2]
[other_rate: 0.1]
[min_data_per_group: 100]
[max_cat_threshold: 32]
[cat_l2: 10]
[cat_smooth: 10]
[max_cat_to_onehot: 4]
[top_k: 20]
[monotone_constraints: ]
[feature_contri: ]
[forcedsplits_filename: ]
[refit_decay_rate: 0.9]
[verbosity: 1]
[max_bin: 90]
[min_data_in_bin: 3]
[bin_construct_sample_cnt: 200000]
[histogram_pool_size: -1]
[data_random_seed: 1]
[output_model: LightGBM_model.txt]
[snapshot_freq: -1]
[input_model: ]
[output_result: LightGBM_predict_result.txt]
[initscore_filename: ]
[valid_data_initscores: ]
[pre_partition: 0]
[enable_bundle: 1]
[max_conflict_rate: 0]
[is_enable_sparse: 1]
[sparse_threshold: 0.8]
[use_missing: 1]
[zero_as_missing: 0]
[two_round: 0]
[save_binary: 0]
[enable_load_from_binary_file: 1]
[header: 0]
[label_column: ]
[weight_column: ]
[group_column: ]
[ignore_column: ]
[categorical_feature: ]
[predict_raw_score: 0]
[predict_leaf_index: 0]
[predict_contrib: 0]
[num_iteration_predict: -1]
[pred_early_stop: 0]
[pred_early_stop_freq: 10]
[pred_early_stop_margin: 10]
[convert_model_language: ]
[convert_model: gbdt_prediction.cpp]
[num_class: 1]
[is_unbalance: 1]
[scale_pos_weight: 1]
[sigmoid: 1]
[boost_from_average: 0]
[reg_sqrt: 0]
[alpha: 0.9]
[fair_c: 1]
[poisson_max_delta_step: 0.7]
[tweedie_variance_power: 1.5]
[max_position: 20]
[label_gain: ]
[metric_freq: 1]
[is_provide_training_metric: 0]
[eval_at: ]
[num_machines: 1]
[local_listen_port: 12400]
[time_out: 120]
[machine_list_filename: ]
[machines: ]
[gpu_platform_id: -1]
[gpu_device_id: -1]
[gpu_use_dp: 0]

end of parameters

pandas_categorical:[]
