tree
version=v2
num_class=1
num_tree_per_iteration=1
label_index=0
max_feature_idx=269
objective=binary sigmoid:1
feature_names=0 1 2 3 4 5 6 7 8 9 10 11 12 13 14 15 16 17 18 19 20 21 22 23 24 25 26 27 28 29 30 31 32 33 34 35 36 37 38 39 40 41 42 43 44 45 46 47 48 49 50 51 52 53 54 55 56 57 58 59 60 61 62 63 64 65 66 67 68 69 70 71 72 73 74 75 76 77 78 79 80 81 82 83 84 85 86 87 88 89 90 91 92 93 94 95 96 97 98 99 100 101 102 103 104 105 106 107 108 109 110 111 112 113 114 115 116 117 118 119 120 121 122 123 124 125 126 127 128 129 130 131 132 133 134 135 136 137 138 139 140 141 142 143 144 145 146 147 148 149 150 151 152 153 154 155 156 157 158 159 160 161 162 163 164 165 166 167 168 169 170 171 172 173 174 175 176 177 178 179 180 181 182 183 184 185 186 187 188 189 190 191 192 193 194 195 196 197 198 199 200 201 202 203 204 205 206 207 208 209 210 211 212 213 214 215 216 217 218 219 220 221 222 223 224 225 226 227 228 229 230 231 232 233 234 235 236 237 238 239 240 241 242 243 244 245 246 247 248 249 250 251 252 253 254 255 256 257 258 259 260 261 262 263 264 265 266 267 268 269
feature_infos=[0:6] [0:3] none [0:7] none none [0:4] none [0:6] [0:16] none [0:5] none [0:4] [0:16] [0:5] none [0:3] [0:9] [0:7] none none [0:6] none [0:6] none [0:5] none [0:3] none [0:5] none none none [0:5] [0:4] [0:7] [0:7] [0:7] none [0:7] none [0:5] none none none [0:6] [0:4] [0:4] none none none [0:10] [0:6] [0:4] none none [0:5] none none none [0:3] none none [0:7] none none none [0:3] [0:4] [0:5] [0:9] none [0:5] none none [0:7] [0:5] none [0:4] none [0:15] none [0:9] none none [0:4] [0:10] [0:7] none none none [0:5] [0:7] [0:4] [0:5] none none none [0:7] [0:6] [0:5] none none [0:3] [0:10] none [0:4] none [0:9] [0:9] none none [0:4] [0:7] [0:21] none [0:7] [0:4] [0:5] none none none none [0:5] none none [0:5] none none none [0:10] [0:9] [0:5] none [0:3] [0:9] none none [0:2] none none [0:11] [0:4] none none none none [0:4] none none none none [0:6] none [0:3] none [0:14] [0:8] [0:9] [0:6] none none none none [0:5] [0:4] [0:6] none [0:2] none [0:4] [0:4] none none none none none [0:3] [0:6] [0:7] none none [0:4] [0:7] none none [0:7] none [0:8] [0:5] none none none none [0:3] [0:7] [0:8] none none none none none none [0:2] [0:3] [0:3] none none none none [0:3] [0:17] [0:5] none none [0:4] none none none none [0:5] none [0:4] [0:2] [0:3] [0:4] none none [0:5] none [0:9] none none none none none none none none none none [0:6] none none [0:10] [0:15] [0:3] [0:4] [0:9] none [0:2] none none [0:9] [0:7] [0:3] none [0:10] none [0:6] none none none none none [0:5] none none none
tree_sizes=867 956 1126 1041 1119 1123 1127 1124 1125 1047 1194 1130 1126 1035 1039 1060 963 1147 1055 1061 1137 1075 1072 1229 1056

Tree=0
num_leaves=10
num_cat=0
split_feature=88 159 3 104 19 117 22 15 18
split_gain=153.573 107.932 70.8612 52.0976 42.4543 25.4314 9.22184 4.47244 1.32303
threshold=1.0000000180025095e-35 1.0000000180025095e-35 1.0000000180025095e-35 1.0000000180025095e-35 1.0000000180025095e-35 1.0000000180025095e-35 1.0000000180025095e-35 1.0000000180025095e-35 1.0000000180025095e-35
decision_type=2 2 2 2 2 2 2 2 2
left_child=1 2 4 -2 6 -3 7 -1 -8
right_child=3 5 -4 -5 -6 -7 8 -9 -10
leaf_value=-1.0173410612540512 1.4563535779838481 1.0016977718561673 0.24902720973970599 -0.34146344186577499 -0.25192804816974218 -0.2280130570006362 -2 -1.6650246391508372 -1.6494845450526281
leaf_count=92 87 75 92 54 83 65 129 63 60
internal_value=0 -0.421304 -0.862764 1.07211 -1.23897 0.580357 -1.57876 -1.25683 -1.88296
internal_count=800 659 519 141 427 140 344 155 189
shrinkage=1


Tree=1
num_leaves=11
num_cat=0
split_feature=246 107 197 19 131 110 115 52 52 158
split_gain=96.8467 40.252 37.4324 24.7141 21.5564 13.3922 9.74555 7.00768 4.89053 4.78939
threshold=1.0000000180025095e-35 1.0000000180025095e-35 2.5000000000000004 1.0000000180025095e-35 1.5000000000000002 1.0000000180025095e-35 1.0000000180025095e-35 1.0000000180025095e-35 1.0000000180025095e-35 1.0000000180025095e-35
decision_type=2 2 2 2 2 2 2 2 2 2
left_child=1 3 4 6 5 9 -1 -2 -8 -3
right_child=7 2 -4 -5 -6 -7 8 -9 -10 -11
leaf_value=-0.64618960281909654 -1.095693626529707 0.92855104339478112 -0.52598840588304596 -1.4100599409205095 -0.2595713015049701 0.49585616065541177 0.47223429164383085 -1.951076436397404 -0.28942842158657289 1.4915077251288715
leaf_count=65 87 49 96 62 93 89 70 88 51 50
internal_value=0 0.226284 0.535513 -0.367016 0.780014 0.956899 -0.0518133 -1.49327 0.23222 1.24685
internal_count=800 625 377 248 281 188 186 175 121 99
shrinkage=1


Tree=2
num_leaves=13
num_cat=0
split_feature=94 113 256 212 206 158 142 9 77 8 204 71
split_gain=34.105 24.1372 29.4695 16.1531 11.891 11.6495 8.79163 12.5367 7.81901 8.84588 5.31781 0.605028
threshold=1.0000000180025095e-35 1.0000000180025095e-35 1.0000000180025095e-35 1.0000000180025095e-35 1.0000000180025095e-35 1.0000000180025095e-35 1.0000000180025095e-35 1.0000000180025095e-35 1.0000000180025095e-35 1.0000000180025095e-35 1.0000000180025095e-35 1.0000000180025095e-35
decision_type=2 2 2 2 2 2 2 2 2 2 2 2
left_child=1 2 3 4 6 -5 8 -8 9 11 -3 -1
right_child=-2 10 -4 5 -6 -7 7 -9 -10 -11 -12 -13
leaf_value=0.61469703209984339 -1.9497382439068565 -1.3760869890117939 -1.2660072651685679 0.11329326435700317 1.0247867984516084 -1.2471767473318935 0.28752385599642083 -0.99099922045364508 0.89950798697560397 -0.48770946475749477 -0.41568931950087407 0.35802591651735693
leaf_count=63 57 56 80 77 54 50 93 50 66 52 53 49
internal_value=0 0.0748375 0.197415 0.308481 0.442762 -0.405338 0.298722 -0.112529 0.486741 0.243967 -0.888646 0.490045
internal_count=800 743 634 554 427 127 373 143 230 164 109 112
shrinkage=1


Tree=3
num_leaves=12
num_cat=0
split_feature=88 38 226 18 40 131 212 118 115 71 142
split_gain=18.4946 15.4108 13.1778 13.364 10.5771 9.69754 11.199 5.74526 8.37467 4.4641 2.98517
threshold=1.0000000180025095e-35 1.0000000180025095e-35 1.0000000180025095e-35 1.0000000180025095e-35 1.0000000180025095e-35 1.5000000000000002 1.0000000180025095e-35 1.0000000180025095e-35 1.5000000000000002 1.0000000180025095e-35 1.0000000180025095e-35
decision_type=2 2 2 2 2 2 2 2 2 2 2
left_child=2 -2 3 5 -5 6 9 8 -6 -1 -7
right_child=1 -3 -4 4 7 10 -8 -9 -10 -11 -12
leaf_value=0.26031522695737025 0.018714560206540439 1.1534302011662938 -1.1628501423519828 0.9240720910610849 -0.42911533857115691 -1.455718059886338 -1.3469081674897698 -0.76373084205962594 0.61206016451720358 -0.40243612920435928 -0.56813925730767245
leaf_count=89 88 53 84 52 61 67 63 62 64 67 50
internal_value=0 0.502101 -0.21547 -0.112387 0.244932 -0.419719 -0.20242 -0.0318387 0.164513 -0.00520837 -1.10185
internal_count=800 141 659 575 239 336 219 187 125 156 117
shrinkage=1


Tree=4
num_leaves=13
num_cat=0
split_feature=196 18 258 136 87 157 197 19 211 197 101 40
split_gain=14.6871 9.28527 11.9806 8.05785 7.43403 5.22699 6.1534 4.82965 6.39406 4.946 3.71189 0.114372
threshold=1.0000000180025095e-35 1.5000000000000002 1.0000000180025095e-35 1.0000000180025095e-35 1.0000000180025095e-35 1.0000000180025095e-35 2.5000000000000004 1.0000000180025095e-35 1.0000000180025095e-35 1.5000000000000002 1.0000000180025095e-35 1.0000000180025095e-35
decision_type=2 2 2 2 2 2 2 2 2 2 2 2
left_child=1 2 3 5 -3 6 7 8 9 10 11 -1
right_child=-2 4 -4 -5 -6 -7 -8 -9 -10 -11 -12 -13
leaf_value=0.34920050972318034 -1.4063636172322427 0.85602794068953258 -1.1410464286667159 -1.0058267200154223 -0.16443694090345642 -0.52742654304299208 -0.76332064405299005 -0.25312254207809459 -0.88873704290191258 0.84249443283681513 -0.25592607681579382 0.46506119997498313
leaf_count=56 87 70 62 63 51 63 55 63 52 65 60 53
internal_value=0 0.0380719 -0.087799 0.00534755 0.516272 0.0763734 0.158951 0.2313 0.347891 0.422909 0.241506 0.405988
internal_count=800 713 592 530 121 467 404 349 286 234 169 109
shrinkage=1


Tree=5
num_leaves=13
num_cat=0
split_feature=115 212 246 117 118 255 179 155 179 117 9 9
split_gain=10.1633 11.2404 12.4322 8.01904 20.0198 12.5174 5.79815 5.5337 5.2176 6.75311 2.74731 1.18125
threshold=1.5000000000000002 1.5000000000000002 1.0000000180025095e-35 1.0000000180025095e-35 1.0000000180025095e-35 1.0000000180025095e-35 1.0000000180025095e-35 1.0000000180025095e-35 1.0000000180025095e-35 1.0000000180025095e-35 1.0000000180025095e-35 1.0000000180025095e-35
decision_type=2 2 2 2 2 2 2 2 2 2 2 2
left_child=3 2 7 5 11 6 10 8 9 -2 -1 -5
right_child=1 -3 -4 4 -6 -7 -8 -9 -10 -11 -12 -13
leaf_value=0.036707450823026233 0.86523222830598634 1.4477253728873785 -1.7236582355127694 -2.0201683261903973 0.31658206936565686 0.71888710397139133 -1.0371488380840794 -0.38451960072906477 -0.13529598884596056 -0.074190141314142546 -0.59516885022544275 -1.3570809605434266
leaf_count=92 80 63 57 50 53 51 55 80 58 57 53 51
internal_value=0 0.268092 0.136931 -0.252629 -0.805448 -0.0652926 -0.3413 0.239132 0.382302 0.582292 -0.146511 -1.71586
internal_count=800 395 332 405 154 251 200 275 195 137 145 101
shrinkage=1


Tree=6
num_leaves=13
num_cat=0
split_feature=54 167 247 22 139 110 160 26 159 107 8 38
split_gain=13.2204 11.3995 9.77836 5.27237 4.8165 4.36015 5.5646 5.11405 8.71858 5.10907 2.0286 2.0108
threshold=1.0000000180025095e-35 1.0000000180025095e-35 1.0000000180025095e-35 1.0000000180025095e-35 1.0000000180025095e-35 1.0000000180025095e-35 1.0000000180025095e-35 1.0000000180025095e-35 1.0000000180025095e-35 1.0000000180025095e-35 1.0000000180025095e-35 1.0000000180025095e-35
decision_type=2 2 2 2 2 2 2 2 2 2 2 2
left_child=1 2 5 -2 -5 7 10 8 9 -1 -7 -3
right_child=3 11 -4 4 -6 6 -8 -9 -10 -11 -12 -13
leaf_value=-0.83664158739888073 -1.3544307878975792 -1.5921356580564134 -0.82962858499698067 0.16967589077609904 -1.3136501084675927 0.89736114128586242 -0.32039347474437008 0.57159409326829402 0.51405993087646862 0.046545790288320336 0.40443949858699091 -0.59138288414564888
leaf_count=98 70 59 60 54 51 75 49 61 53 64 56 50
internal_value=0 0.118963 0.204332 -0.78254 -0.294245 0.290847 0.541819 0.118619 -0.0701095 -0.423549 0.699033 -1.01722
internal_count=800 625 516 175 105 456 180 276 215 162 131 109
shrinkage=1


Tree=7
num_leaves=13
num_cat=0
split_feature=48 3 40 73 115 47 115 71 117 158 158 37
split_gain=9.48756 8.91488 7.91517 6.59821 6.43823 8.20419 6.26993 4.58913 5.61599 3.31202 2.16551 0.537166
threshold=1.0000000180025095e-35 1.0000000180025095e-35 1.5000000000000002 1.0000000180025095e-35 1.0000000180025095e-35 1.0000000180025095e-35 1.5000000000000002 1.0000000180025095e-35 1.0000000180025095e-35 1.0000000180025095e-35 1.0000000180025095e-35 1.0000000180025095e-35
decision_type=2 2 2 2 2 2 2 2 2 2 2 2
left_child=1 3 -2 4 -1 7 -5 9 -9 -6 -3 -7
right_child=2 10 -4 6 5 11 -8 8 -10 -11 -12 -13
leaf_value=0.41901038752733599 1.0171149080142896 0.016351734807916268 -0.073849079073800575 -1.8822908678641657 -1.0404603310863429 -1.7085088103641961 -0.27868924623088132 0.38047315675857213 -0.73133673930554621 -0.14585914151489635 0.61829379547349272 -1.1343836799832268
leaf_count=73 50 54 74 58 69 52 50 87 59 69 56 49
internal_value=0 -0.152447 0.522537 -0.337779 -0.211186 -0.385247 -1.09921 -0.213597 0.0767414 -0.614044 0.364939 -1.4245
internal_count=800 676 124 566 458 385 108 284 146 138 110 101
shrinkage=1


Tree=8
num_leaves=13
num_cat=0
split_feature=178 113 46 229 157 0 54 105 221 197 118 37
split_gain=7.44032 5.85763 4.12652 3.64765 6.32603 4.2417 5.54064 4.32774 9.20422 6.66201 2.18028 0.725402
threshold=1.0000000180025095e-35 1.0000000180025095e-35 1.0000000180025095e-35 1.0000000180025095e-35 1.0000000180025095e-35 1.0000000180025095e-35 1.0000000180025095e-35 1.0000000180025095e-35 1.0000000180025095e-35 1.0000000180025095e-35 1.0000000180025095e-35 1.0000000180025095e-35
decision_type=2 2 2 2 2 2 2 2 2 2 2 2
left_child=1 2 3 4 5 6 7 8 9 -1 -3 -5
right_child=-2 10 -4 11 -6 -7 -8 -9 -10 -11 -12 -13
leaf_value=0.49367824408314687 -1.0236008391744931 -0.25315786453189337 -0.6208193285454443 0.35099307397471485 -0.75832325115604937 0.65054234550812517 -1.1508865160634001 0.58998710588620396 -1.263556050332352 -1.0404101331535818 -1.1660500755038394 0.7550521561646022
leaf_count=61 61 53 91 49 62 80 63 75 51 51 54 49
internal_value=0 0.0694247 0.151774 0.210181 0.099957 0.2112 0.0465972 0.155036 -0.0992736 0.220921 -0.626079 0.599424
internal_count=800 739 632 541 443 381 301 238 163 112 107 98
shrinkage=1


Tree=9
num_leaves=12
num_cat=0
split_feature=36 88 3 93 158 18 71 249 87 197 40
split_gain=5.44536 3.64778 5.83313 3.70745 3.50046 3.24492 3.65052 2.27633 1.94991 1.62844 0.352475
threshold=1.5000000000000002 1.0000000180025095e-35 1.0000000180025095e-35 1.0000000180025095e-35 1.0000000180025095e-35 1.0000000180025095e-35 1.0000000180025095e-35 1.0000000180025095e-35 1.0000000180025095e-35 1.5000000000000002 1.0000000180025095e-35
decision_type=2 2 2 2 2 2 2 2 2 2 2
left_child=1 2 3 5 -3 6 10 -7 -8 -4 -1
right_child=-2 4 9 -5 -6 7 8 -9 -10 -11 -12
leaf_value=-0.42124072919843852 0.87412858975603525 -0.076419891192736525 0.51644033980585435 -1.6174013626095529 0.6017767253148405 -0.36176436549052721 -0.55005292209706991 0.37478136625077507 -1.4596314848666778 -0.065281261950983313 -0.07038725841505053
leaf_count=49 60 78 51 59 59 94 83 50 87 58 72
internal_value=0 -0.0290196 -0.171229 -0.388009 0.253129 -0.313824 -0.570701 0.0156796 -1.03547 0.273928 -0.206099
internal_count=800 740 603 494 137 435 291 144 170 109 121
shrinkage=1


Tree=10
num_leaves=14
num_cat=0
split_feature=136 8 52 61 107 40 221 115 18 38 40 83 35
split_gain=7.57342 4.18998 2.79535 4.84382 2.31291 3.9327 4.50607 2.3184 2.16866 2.45804 1.27937 0.760205 0.0708576
threshold=1.0000000180025095e-35 1.5000000000000002 1.5000000000000002 1.0000000180025095e-35 1.0000000180025095e-35 2.5000000000000004 1.0000000180025095e-35 1.0000000180025095e-35 1.0000000180025095e-35 1.0000000180025095e-35 1.0000000180025095e-35 1.0000000180025095e-35 1.0000000180025095e-35
decision_type=2 2 2 2 2 2 2 2 2 2 2 2 2
left_child=1 2 3 4 7 8 -7 -1 9 -6 -9 12 -2
right_child=11 -3 -4 -5 5 6 -8 10 -10 -11 -12 -13 -14
leaf_value=-0.42687274301563366 -1.464599546370938 -0.86705406561640852 0.6070034031262096 -0.88381840867893091 -0.22424781507869437 0.32104937321304433 -0.95617417561761786 -0.15350657905715448 0.8522284732315798 0.62891770264431457 0.40644930042683391 -0.69653192365690408 -1.059312649283189
leaf_count=72 49 51 59 49 52 63 60 57 53 65 70 51 49
internal_value=0 0.0983387 0.149226 0.0738569 0.146563 0.310192 -0.169992 -0.0720537 0.531667 0.264341 0.16402 -1.04627 -1.39681
internal_count=800 651 600 541 492 293 123 199 170 117 127 149 98
shrinkage=1


Tree=11
num_leaves=13
num_cat=0
split_feature=42 114 92 132 133 187 119 37 40 38 8 71
split_gain=2.91966 3.13226 3.90215 4.89101 2.09057 3.9409 2.17157 4.68847 3.91185 3.56429 1.40031 0.762067
threshold=1.0000000180025095e-35 1.0000000180025095e-35 1.0000000180025095e-35 1.0000000180025095e-35 1.0000000180025095e-35 1.0000000180025095e-35 1.0000000180025095e-35 1.0000000180025095e-35 2.5000000000000004 1.0000000180025095e-35 1.0000000180025095e-35 1.0000000180025095e-35
decision_type=2 2 2 2 2 2 2 2 2 2 2 2
left_child=1 2 3 4 5 6 7 9 -9 11 -10 -1
right_child=-2 -3 -4 -5 -6 -7 -8 8 10 -11 -12 -13
leaf_value=0.35884963874442594 -1.2988710306387647 0.74015957741687655 -1.1654366578587487 -1.1103485318341717 0.48925437069632516 -0.85430018800225638 0.59417098399150614 -1.1053419778788047 -0.51885642273148724 -0.31669894792163683 0.20066159983575713 0.78050999414218725
leaf_count=87 57 55 49 50 58 49 55 90 59 81 55 55
internal_value=0 0.0528514 -0.00331512 0.0414497 0.100242 0.0220394 0.100635 0.0168376 -0.399686 0.267608 -0.0710512 0.485325
internal_count=800 743 688 639 589 531 482 427 204 223 114 142
shrinkage=1


Tree=12
num_leaves=13
num_cat=0
split_feature=86 88 47 221 159 197 71 83 52 110 40 197
split_gain=3.63438 2.19533 4.29825 5.00396 4.30242 3.845 1.94616 1.23481 1.79475 0.747606 0.549592 0.29757
threshold=1.0000000180025095e-35 1.0000000180025095e-35 1.0000000180025095e-35 1.0000000180025095e-35 1.0000000180025095e-35 1.5000000000000002 1.0000000180025095e-35 1.0000000180025095e-35 1.0000000180025095e-35 1.0000000180025095e-35 1.0000000180025095e-35 1.5000000000000002
decision_type=2 2 2 2 2 2 2 2 2 2 2 2
left_child=1 2 4 -4 5 9 -3 8 -7 10 -1 -6
right_child=-2 6 3 -5 11 7 -8 -9 -10 -11 -12 -13
leaf_value=-0.92481764069860739 -0.83168704284272121 0.083239367778918008 0.96587248780531421 -0.80313723062580278 0.34379673935294525 -0.95778742875852951 0.66811015265621831 0.2845624864657873 0.39796332245908789 -1.2922599698721868 -0.43429232449060851 0.040945704542061
leaf_count=71 61 66 60 66 61 61 60 52 57 72 64 49
internal_value=0 0.0719376 -0.058026 0.558783 -0.213309 -0.485764 0.318385 -0.0179123 -0.434617 -0.856801 -0.717822 0.227164
internal_count=800 739 613 126 487 377 126 170 118 207 135 110
shrinkage=1


Tree=13
num_leaves=12
num_cat=0
split_feature=19 180 18 83 197 0 52 197 115 8 26
split_gain=2.56672 3.01563 1.9835 1.80396 2.66796 1.70849 1.91148 1.34935 1.04798 1.03701 0.965388
threshold=1.0000000180025095e-35 1.0000000180025095e-35 1.5000000000000002 1.0000000180025095e-35 2.5000000000000004 1.0000000180025095e-35 1.0000000180025095e-35 1.5000000000000002 1.5000000000000002 1.0000000180025095e-35 1.0000000180025095e-35
decision_type=2 2 2 2 2 2 2 2 2 2 2
left_child=1 3 10 4 5 6 7 8 -1 -5 -2
right_child=2 -3 -4 9 -6 -7 -8 -9 -10 -11 -12
leaf_value=0.087085581364507586 -0.92377994737458513 -1.3017812871089041 0.10769744129103678 0.75222357864699174 -0.94148222530942027 0.4593342777062735 -0.85959220017696392 0.62251623242138976 -0.57740306797711927 0.098647328382278632 -0.31258276122823914
leaf_count=90 81 49 53 55 81 93 62 56 74 57 49
internal_value=0 0.139004 -0.312474 0.18394 0.070684 0.147782 -0.0248333 0.0871802 -0.0526634 0.53657 -0.586011
internal_count=800 617 183 568 456 375 282 220 164 112 130
shrinkage=1


Tree=14
num_leaves=12
num_cat=0
split_feature=101 24 8 245 197 46 256 3 242 71 197
split_gain=1.646 2.15279 1.41721 0.941582 0.849414 0.774086 0.844827 0.76542 0.91813 1.71215 1.24201
threshold=1.5000000000000002 1.5000000000000002 1.5000000000000002 1.0000000180025095e-35 2.5000000000000004 1.0000000180025095e-35 1.0000000180025095e-35 1.0000000180025095e-35 1.0000000180025095e-35 1.0000000180025095e-35 1.5000000000000002
decision_type=2 2 2 2 2 2 2 2 2 2 2
left_child=1 2 3 4 5 6 7 8 9 -1 -10
right_child=-2 -3 -4 -5 -6 -7 -8 -9 10 -11 -12
leaf_value=0.39018976196377125 0.4013293336336855 -1.2568560702384091 -0.96070870276936449 -0.49716317077395583 -0.41553216707307111 -0.41436482276445324 -0.60166856359740639 0.43488849900984727 -0.65103436762843847 -0.22922520779640915 0.19267463805002835
leaf_count=99 97 51 54 69 88 51 51 49 71 71 49
internal_value=0 -0.0655333 -0.0290671 0.00256989 0.0430867 0.0861432 0.125473 0.15734 0.0783844 0.186366 -0.234299
internal_count=800 703 652 598 529 441 390 339 290 170 120
shrinkage=1


Tree=15
num_leaves=12
num_cat=0
split_feature=143 247 107 37 242 35 77 18 18 249 110
split_gain=1.7734 1.80199 1.60367 1.24817 1.38663 1.15197 1.50949 1.12627 1.05115 0.957224 1.9725
threshold=1.0000000180025095e-35 1.0000000180025095e-35 1.0000000180025095e-35 1.0000000180025095e-35 1.0000000180025095e-35 1.0000000180025095e-35 1.0000000180025095e-35 1.0000000180025095e-35 1.0000000180025095e-35 1.0000000180025095e-35 1.0000000180025095e-35
decision_type=2 2 2 2 2 2 2 2 2 2 2
left_child=1 2 5 8 -5 6 7 -1 -4 10 -6
right_child=-2 -3 3 4 9 -7 -8 -9 -10 -11 -12
leaf_value=-0.74569330495399377 0.40767517250277552 -0.95320290202500646 0.058506878538768646 0.65642585597974601 -1.1814530763899671 0.36810814268808045 0.15659730483688408 -0.088829564368837099 0.6597445160262263 0.22577082673305301 -0.049330280087802068
leaf_count=105 56 74 87 54 55 69 56 62 49 50 83
internal_value=0 -0.0606437 -0.0158406 0.155859 -0.0675808 -0.233515 -0.334715 -0.524409 0.388741 -0.22403 -0.435435
internal_count=800 744 670 378 242 292 223 167 136 188 138
shrinkage=1


Tree=16
num_leaves=11
num_cat=0
split_feature=42 87 37 104 22 22 77 115 24 115
split_gain=0.950219 0.933686 1.33512 4.26823 1.11798 0.924951 0.671951 0.599659 0.55303 0.0422741
threshold=1.0000000180025095e-35 1.5000000000000002 1.5000000000000002 1.0000000180025095e-35 1.0000000180025095e-35 1.0000000180025095e-35 1.0000000180025095e-35 1.5000000000000002 1.0000000180025095e-35 1.5000000000000002
decision_type=2 2 2 2 2 2 2 2 2 2
left_child=1 2 3 4 8 -3 7 -6 9 -1
right_child=-2 5 -4 -5 6 -7 -8 -9 -10 -11
leaf_value=0.43250783077934973 -1.1920711073021415 -0.65072954865742949 0.54862682904441384 -0.83311991096822269 -0.26345609727486896 -0.011181625900351084 -0.43579346459021123 0.40056537223354954 -0.027021266441233857 0.31390770401921891
leaf_count=92 57 69 91 87 67 94 53 63 68 59
internal_value=0 0.0369962 0.106494 0.0291856 0.178064 -0.237452 -0.107022 0.113644 0.31638 0.40074
internal_count=800 743 580 489 402 163 183 130 219 151
shrinkage=1


Tree=17
num_leaves=13
num_cat=0
split_feature=47 110 157 76 105 18 36 110 38 255 40 204
split_gain=1.28194 1.40361 1.58738 1.58275 1.29245 1.01587 1.82418 1.02628 0.774318 0.755474 0.420899 0.0195894
threshold=1.0000000180025095e-35 1.5000000000000002 1.0000000180025095e-35 1.0000000180025095e-35 1.0000000180025095e-35 1.0000000180025095e-35 1.0000000180025095e-35 1.0000000180025095e-35 1.0000000180025095e-35 1.0000000180025095e-35 1.0000000180025095e-35 1.0000000180025095e-35
decision_type=2 2 2 2 2 2 2 2 2 2 2 2
left_child=1 2 3 5 -2 6 7 10 -7 -4 -1 -10
right_child=4 -3 9 -5 -6 8 -8 -9 11 -11 -12 -13
leaf_value=-0.12724455443561036 0.72231952049236903 0.54884824257607479 -1.1147005061213047 -1.2099795463008567 -0.080582121960983716 0.48499460539827172 -0.85481492627353672 -0.51904117700378694 -0.060831872120305226 -0.23045677191378328 0.28590498217675242 0.048725122658793502
leaf_count=50 65 59 53 53 88 77 66 64 49 54 70 52
internal_value=0 -0.0618245 -0.122594 -0.0456229 0.375024 -0.00103317 -0.160735 -0.00523732 0.215617 -0.72211 0.139415 -0.0150958
internal_count=800 647 588 481 153 428 250 184 178 107 120 101
shrinkage=1


Tree=18
num_leaves=12
num_cat=0
split_feature=167 71 14 88 131 204 0 24 87 18 24
split_gain=0.733109 1.21404 1.28244 0.752593 1.75295 0.727009 0.625538 0.852273 0.472624 0.286199 0.178886
threshold=1.0000000180025095e-35 1.0000000180025095e-35 1.0000000180025095e-35 1.0000000180025095e-35 1.5000000000000002 1.0000000180025095e-35 1.0000000180025095e-35 1.0000000180025095e-35 1.0000000180025095e-35 1.0000000180025095e-35 1.0000000180025095e-35
decision_type=2 2 2 2 2 2 2 2 2 2 2
left_child=1 2 6 4 5 8 7 9 -3 -1 -2
right_child=10 3 -4 -5 -6 -7 -8 -9 -10 -11 -12
leaf_value=0.13717526863569468 -0.36701932147848915 0.60776487432434045 -0.77617333989434201 0.56410033346355659 -0.94886772275994857 -0.1107152727294395 0.27328427322576798 -0.53175853453007282 0.12243906414217084 -0.25393117749905164 -1.0716226571609313
leaf_count=84 80 58 56 58 91 72 64 69 53 51 64
internal_value=0 0.0558958 -0.109796 0.239777 0.116913 0.236988 -0.017979 -0.134562 0.406831 0.0285363 -0.474397
internal_count=800 656 324 332 274 183 268 204 111 135 144
shrinkage=1


Tree=19
num_leaves=12
num_cat=0
split_feature=61 105 124 231 255 249 107 36 9 242 40
split_gain=1.16361 0.884532 0.795881 0.743048 0.519818 0.685946 1.08836 0.556558 1.67033 0.445201 0.346325
threshold=1.0000000180025095e-35 1.0000000180025095e-35 1.0000000180025095e-35 1.0000000180025095e-35 1.5000000000000002 1.0000000180025095e-35 1.0000000180025095e-35 1.0000000180025095e-35 1.0000000180025095e-35 1.0000000180025095e-35 1.0000000180025095e-35
decision_type=2 2 2 2 2 2 2 2 2 2 2
left_child=1 3 9 4 5 7 -7 8 10 -3 -1
right_child=-2 2 -4 -5 -6 6 -8 -9 -10 -11 -12
leaf_value=0.063582574629424737 -0.71960666217560132 0.7295502389328069 -0.23574253564768222 -0.56948320155629273 -0.32221098605859227 -0.67641961558776398 0.10842668039320932 0.57731886316266445 -0.85492079964674617 0.25964215845027711 0.49542256635905974
leaf_count=53 92 76 80 74 54 49 58 59 53 76 76
internal_value=0 0.0502323 0.284444 -0.049451 0.00431467 0.0704117 -0.160106 0.218968 0.0914631 0.419711 0.287917
internal_count=800 708 232 476 402 348 107 241 182 152 129
shrinkage=1


Tree=20
num_leaves=13
num_cat=0
split_feature=169 136 115 87 37 73 3 159 22 115 8 142
split_gain=0.837697 0.645202 0.922098 0.307842 0.576366 0.610446 0.904055 0.543847 1.3957 0.294466 0.224663 0.0319743
threshold=1.0000000180025095e-35 1.0000000180025095e-35 2.5000000000000004 1.5000000000000002 1.5000000000000002 1.0000000180025095e-35 1.0000000180025095e-35 1.0000000180025095e-35 1.0000000180025095e-35 2.5000000000000004 1.0000000180025095e-35 1.0000000180025095e-35
decision_type=2 2 2 2 2 2 2 2 2 2 2 2
left_child=1 2 3 4 5 6 7 8 -1 -3 -4 -5
right_child=-2 9 10 11 -6 -7 -8 -9 -10 -11 -12 -13
leaf_value=0.041844572484291673 -0.64932496947352769 -0.87682653753878248 0.55409966342759898 -0.18424338458292847 0.57389259306529239 0.38095742029132729 -0.56289882049547191 0.27593079920867825 -1.2810768129062715 -0.19247681175242323 0.22896223109736447 -0.36641657997849492
leaf_count=93 62 74 66 53 49 61 49 60 77 49 56 51
internal_value=0 0.0542241 0.0977608 -0.00354115 0.0488663 -0.00711546 -0.0958851 0.0383473 -0.166003 -0.360825 0.37943 -0.250681
internal_count=800 738 615 493 389 340 279 230 170 123 122 104
shrinkage=1


Tree=21
num_leaves=12
num_cat=0
split_feature=165 183 135 13 124 110 115 105 71 142 110
split_gain=0.616788 0.645302 0.612716 0.476645 0.376667 0.677119 0.421138 0.308468 0.226063 0.0445127 0.0705922
threshold=1.0000000180025095e-35 1.0000000180025095e-35 1.0000000180025095e-35 1.0000000180025095e-35 1.0000000180025095e-35 1.0000000180025095e-35 1.0000000180025095e-35 1.0000000180025095e-35 1.0000000180025095e-35 1.0000000180025095e-35 1.0000000180025095e-35
decision_type=2 2 2 2 2 2 2 2 2 2 2
left_child=1 2 3 4 5 6 -1 -8 -7 10 -6
right_child=-2 -3 -4 -5 9 8 7 -9 -10 -11 -12
leaf_value=-0.16264585874061455 0.44845308579992654 -0.82727603285904716 -0.58493043363443775 -0.44386231643937302 0.12921382154273103 -0.50015062853102243 0.03060942051481965 0.42638787310319437 0.19562038277059127 0.37949283371808107 0.32905668508380548
leaf_count=82 85 78 71 71 58 70 86 50 49 49 51
internal_value=0 -0.0381141 -0.0121274 0.0229864 0.0585562 -0.0356526 0.0771773 0.217409 -0.402063 0.208462 0.183177
internal_count=800 715 637 566 495 337 218 136 119 158 109
shrinkage=1


Tree=22
num_leaves=12
num_cat=0
split_feature=86 3 88 48 179 155 246 142 117 255 71
split_gain=1.34039 0.459507 0.905371 0.998682 0.943299 0.531008 0.605974 0.475818 0.176774 0.101362 0.0433483
threshold=1.0000000180025095e-35 1.0000000180025095e-35 1.0000000180025095e-35 1.0000000180025095e-35 1.0000000180025095e-35 1.0000000180025095e-35 1.0000000180025095e-35 1.0000000180025095e-35 1.0000000180025095e-35 1.0000000180025095e-35 1.0000000180025095e-35
decision_type=2 2 2 2 2 2 2 2 2 2 2
left_child=1 2 3 4 5 6 7 10 -3 -6 -1
right_child=-2 8 -4 -5 9 -7 -8 -9 -10 -11 -12
leaf_value=-0.030852612929985247 -0.70352952550857106 0.39340813048231155 0.27493809910191197 0.30898673412348066 -1.0361399024418638 -0.91575527501190468 -1.2879607068699901 -0.82231421708547925 0.058019119057886377 -0.63627535678866232 0.14037604025554731
leaf_count=49 61 68 92 54 54 89 63 78 73 58 61
internal_value=0 0.0659857 -0.00528285 -0.150982 -0.299801 -0.1399 -0.0592587 0.00488991 0.285472 -0.834973 0.0836144
internal_count=800 739 598 506 452 340 251 188 141 112 110
shrinkage=1


Tree=23
num_leaves=14
num_cat=0
split_feature=216 34 113 104 157 110 212 52 204 8 8 107 71
split_gain=0.561432 0.505244 0.409014 0.453976 0.442893 0.589696 0.441064 0.430681 0.390573 0.251478 0.204568 0.116393 0.0685416
threshold=1.0000000180025095e-35 1.0000000180025095e-35 1.0000000180025095e-35 1.0000000180025095e-35 1.0000000180025095e-35 1.0000000180025095e-35 1.0000000180025095e-35 1.0000000180025095e-35 1.0000000180025095e-35 1.0000000180025095e-35 1.0000000180025095e-35 1.0000000180025095e-35 1.0000000180025095e-35
decision_type=2 2 2 2 2 2 2 2 2 2 2 2 2
left_child=1 2 3 4 5 7 9 10 -5 -7 12 -2 -1
right_child=11 -3 -4 8 -6 6 -8 -9 -10 -11 -12 -13 -14
leaf_value=0.43399538263647042 -0.55636978972903872 0.75641676455697993 -0.42059385274594785 -0.39931636997015135 -0.51356217554090722 0.25542816472728297 -0.72244576659097492 -0.33936930813847277 0.087134625713614411 -0.29553973665558814 0.78053978908334598 -0.21258469193290472 0.20007411113184448
leaf_count=64 54 51 86 52 50 66 53 51 57 53 62 51 50
internal_value=0 0.0610703 0.0300281 0.0705366 0.172893 0.219165 -0.0673517 0.376725 -0.1452 0.0779188 0.448085 -0.289057 0.3678
internal_count=800 695 644 558 449 399 172 227 109 119 176 105 114
shrinkage=1


Tree=24
num_leaves=12
num_cat=0
split_feature=18 24 197 22 159 36 24 54 38 110 40
split_gain=0.6363 0.6319 0.531829 0.57854 0.800695 0.495244 0.473005 0.292621 0.289268 0.193315 0.16501
threshold=1.5000000000000002 1.0000000180025095e-35 2.5000000000000004 1.0000000180025095e-35 1.0000000180025095e-35 1.0000000180025095e-35 1.0000000180025095e-35 1.0000000180025095e-35 1.0000000180025095e-35 1.0000000180025095e-35 1.0000000180025095e-35
decision_type=2 2 2 2 2 2 2 2 2 2 2
left_child=2 -2 3 7 5 6 -5 9 -4 10 -1
right_child=1 -3 8 4 -6 -7 -8 -9 -10 -11 -12
leaf_value=0.037964970474931949 0.58718542704950116 0.017960108712227391 -1.1121346002401493 -0.13799427910755183 0.58198364398852076 -0.93149702914133903 0.62966484495130248 -0.67089260830688657 -0.14340058611417206 -0.41718377037294924 -0.28077222038543331
leaf_count=99 89 60 58 73 57 57 49 57 60 75 66
internal_value=0 0.25635 -0.0772865 -0.034802 0.167653 -0.0726905 0.0406314 -0.187748 -0.704799 -0.130843 -0.0599406
internal_count=800 149 651 533 236 179 122 297 118 240 165
shrinkage=1


end of trees

feature importances:
115=12
197=12
18=11
40=11
71=11
110=10
8=9
3=6
22=6
24=6
37=6
38=6
52=6
88=6
107=6
87=5
117=5
142=5
158=5
159=5
9=4
19=4
36=4
105=4
157=4
204=4
212=4
255=4
0=3
47=3
54=3
77=3
83=3
104=3
113=3
118=3
131=3
136=3
179=3
221=3
242=3
246=3
249=3
26=2
35=2
42=2
46=2
48=2
61=2
73=2
86=2
101=2
124=2
155=2
167=2
247=2
256=2
13=1
14=1
15=1
34=1
76=1
92=1
93=1
94=1
114=1
119=1
132=1
133=1
135=1
139=1
143=1
160=1
165=1
169=1
178=1
180=1
183=1
187=1
196=1
206=1
211=1
216=1
226=1
229=1
231=1
245=1
258=1

parameters:
[boosting: gbdt]
[objective: binary]
[metric: auc]
[tree_learner: serial]
[device_type: cpu]
[data: ]
[valid: ]
[num_iterations: 100]
[learning_rate: 1]
[num_leaves: 80]
[num_threads: 0]
[max_depth: 30]
[min_data_in_leaf: 49]
[min_sum_hessian_in_leaf: 0]
[bagging_fraction: 0.83122]
[bagging_freq: 0]
[bagging_seed: 3]
[feature_fraction: 0.87559]
[feature_fraction_seed: 2]
[early_stopping_round: 0]
[max_delta_step: 0]
[lambda_l1: 0]
[lambda_l2: 0]
[min_gain_to_split: 0]
[drop_rate: 0.1]
[max_drop: 50]
[skip_drop: 0.5]
[xgboost_dart_mode: 0]
[uniform_drop: 0]
[drop_seed: 4]
[top_rate: 0.2]
[other_rate: 0.1]
[min_data_per_group: 100]
[max_cat_threshold: 32]
[cat_l2: 10]
[cat_smooth: 10]
[max_cat_to_onehot: 4]
[top_k: 20]
[monotone_constraints: ]
[feature_contri: ]
[forcedsplits_filename: ]
[refit_decay_rate: 0.9]
[verbosity: 1]
[max_bin: 90]
[min_data_in_bin: 3]
[bin_construct_sample_cnt: 200000]
[histogram_pool_size: -1]
[data_random_seed: 1]
[output_model: LightGBM_model.txt]
[snapshot_freq: -1]
[input_model: ]
[output_result: LightGBM_predict_result.txt]
[initscore_filename: ]
[valid_data_initscores: ]
[pre_partition: 0]
[enable_bundle: 1]
[max_conflict_rate: 0]
[is_enable_sparse: 1]
[sparse_threshold: 0.8]
[use_missing: 1]
[zero_as_missing: 0]
[two_round: 0]
[save_binary: 0]
[enable_load_from_binary_file: 1]
[header: 0]
[label_column: ]
[weight_column: ]
[group_column: ]
[ignore_column: ]
[categorical_feature: ]
[predict_raw_score: 0]
[predict_leaf_index: 0]
[predict_contrib: 0]
[num_iteration_predict: -1]
[pred_early_stop: 0]
[pred_early_stop_freq: 10]
[pred_early_stop_margin: 10]
[convert_model_language: ]
[convert_model: gbdt_prediction.cpp]
[num_class: 1]
[is_unbalance: 1]
[scale_pos_weight: 1]
[sigmoid: 1]
[boost_from_average: 0]
[reg_sqrt: 0]
[alpha: 0.9]
[fair_c: 1]
[poisson_max_delta_step: 0.7]
[tweedie_variance_power: 1.5]
[max_position: 20]
[label_gain: ]
[metric_freq: 1]
[is_provide_training_metric: 0]
[eval_at: ]
[num_machines: 1]
[local_listen_port: 12400]
[time_out: 120]
[machine_list_filename: ]
[machines: ]
[gpu_platform_id: -1]
[gpu_device_id: -1]
[gpu_use_dp: 0]

end of parameters

pandas_categorical:[]
